{
    "layers": [
        [
            {
                "b": 0.0,
                "w": [
                    -0.09873653203248978,
                    0.019644759595394135,
                    -0.05093234404921532,
                    0.05388043075799942,
                    -0.08015076071023941,
                    -0.09827876091003418,
                    -0.046275217086076736,
                    0.09384746104478836,
                    0.018253125250339508,
                    0.011435285210609436,
                    0.030613116919994354,
                    -0.016971342265605927,
                    -0.022537916898727417,
                    0.09452498704195023,
                    -0.02383190393447876,
                    -0.06893826276063919,
                    0.07182531803846359,
                    -0.08171331137418747,
                    0.01748405396938324,
                    -0.0303262397646904,
                    -0.03281044960021973,
                    -0.09791253507137299,
                    -0.05419782176613808,
                    0.07713552564382553,
                    -0.027402564883232117,
                    0.08727987855672836,
                    0.03173620253801346,
                    -0.04222846031188965,
                    -0.07327799499034882,
                    0.0028290599584579468,
                    0.05326395481824875,
                    0.08281197398900986,
                    -0.09965208917856216,
                    0.08297676593065262,
                    0.06793726235628128,
                    0.09881588071584702,
                    -0.003903314471244812,
                    -0.00699789822101593,
                    0.06049073487520218,
                    0.009897150099277496,
                    0.026676230132579803,
                    -0.08050477504730225,
                    0.097027488052845,
                    0.04011658579111099,
                    -0.047117527574300766,
                    -0.018680378794670105,
                    -0.08284860104322433,
                    -0.017947934567928314,
                    0.06265144795179367,
                    0.017526783049106598,
                    -0.0047578364610672,
                    -0.06188848614692688,
                    -0.02767113596200943,
                    -0.0915524810552597,
                    0.0020538941025733948,
                    0.06055177003145218,
                    0.03149206191301346,
                    0.08632770925760269,
                    0.09804070740938187,
                    -0.0033783987164497375,
                    0.012515641748905182,
                    -0.008468881249427795,
                    -0.010489210486412048,
                    0.04506058245897293,
                    0.06618548184633255,
                    -0.06918241083621979,
                    -0.021030306816101074,
                    -0.0698782354593277,
                    0.02452772855758667,
                    0.09374981373548508,
                    -0.059202857315540314,
                    -0.000546284019947052,
                    0.032187871634960175,
                    -0.016428112983703613,
                    0.05361796170473099,
                    -0.04794762656092644,
                    -0.012417986989021301,
                    0.018820762634277344,
                    0.020517602562904358,
                    -0.09744865447282791,
                    -0.024961091578006744,
                    -0.03816339373588562,
                    0.008462786674499512,
                    0.08807945996522903,
                    -0.030777916312217712,
                    -0.0694509744644165,
                    0.03802911192178726,
                    0.02392955869436264,
                    -0.006942965090274811,
                    0.04961394518613815,
                    0.05483870953321457,
                    0.014371171593666077,
                    0.010440386831760406,
                    0.0973631963133812,
                    0.013852342963218689,
                    0.02469862997531891,
                    -0.06505019962787628,
                    0.004629656672477722,
                    0.007809683680534363,
                    0.020914338529109955,
                    0.035850100219249725,
                    -0.03817560151219368,
                    -0.028928495943546295,
                    -0.01674550771713257,
                    -0.0774773433804512,
                    -0.009579762816429138,
                    -0.009921565651893616,
                    0.09974975138902664,
                    -0.01116672158241272,
                    -0.06482437252998352,
                    -0.04826502129435539,
                    -0.05388043075799942,
                    0.0983031764626503,
                    -0.06667989492416382,
                    -0.03910946846008301,
                    -0.04172185808420181,
                    -0.008285775780677795,
                    -0.08312326669692993,
                    0.05826898664236069,
                    0.003659166395664215,
                    -0.0018280595541000366,
                    0.004525899887084961,
                    0.06996368616819382,
                    -0.042448192834854126,
                    -0.06910916417837143,
                    -0.06088747829198837,
                    -0.08012024313211441,
                    0.09090549498796463,
                    -0.05091403052210808,
                    0.02711569517850876,
                    0.0363444909453392,
                    -0.024472787976264954,
                    0.06702781468629837,
                    -0.06365856528282166,
                    -0.01602526754140854,
                    -0.08669392764568329,
                    0.09169896692037582,
                    0.008059941232204437,
                    -0.04763023927807808,
                    -0.0046357661485672,
                    0.07015901058912277,
                    0.03982970863580704,
                    0.03254187852144241,
                    -0.00243232399225235,
                    0.027982421219348907,
                    -0.004709005355834961,
                    -0.0874507874250412,
                    0.018704794347286224,
                    0.07988830655813217,
                    -0.0028290599584579468,
                    -0.07643970847129822,
                    0.06735739856958389,
                    0.09395123273134232,
                    0.059715576469898224,
                    0.06747337430715561,
                    -0.09605090320110321,
                    -0.009469889104366302,
                    -0.08317209780216217,
                    -0.042545855045318604,
                    -0.055888544768095016,
                    0.05726798623800278,
                    0.0022248029708862305,
                    -0.09730827063322067,
                    -0.07043977081775665,
                    -0.03872493654489517,
                    -0.062340158969163895,
                    0.06842554360628128,
                    -0.027134008705615997,
                    0.039927370846271515,
                    -0.014236882328987122,
                    -0.05731681361794472,
                    0.08230537921190262,
                    -0.04866786673665047,
                    0.023441269993782043,
                    0.04091007262468338,
                    -0.02703024446964264,
                    0.0658925250172615,
                    0.09233985096216202,
                    0.0796990916132927,
                    0.07056184858083725,
                    0.08008361607789993,
                    0.08242134004831314,
                    -0.04904019460082054,
                    -0.08610187470912933,
                    0.033762626349925995,
                    0.005063019692897797,
                    -0.07230750471353531,
                    0.06260261684656143,
                    0.012253180146217346,
                    0.011819817125797272,
                    0.03267616778612137,
                    -0.08397167921066284,
                    -0.08557695150375366,
                    0.015164650976657867,
                    0.0012543052434921265,
                    -0.05014496296644211,
                    -0.0319376215338707,
                    0.06739402562379837,
                    -0.030417799949645996,
                    -0.02356944978237152
                ]
            },
            {
                "b": 0.0,
                "w": [
                    -0.026279494166374207,
                    -0.04595782235264778,
                    -0.08054140210151672,
                    -0.06477554142475128,
                    -0.041618090122938156,
                    -0.04205755516886711,
                    0.011069059371948242,
                    0.019638657569885254,
                    0.02009032666683197,
                    0.05028534680604935,
                    0.03483688086271286,
                    0.046324051916599274,
                    0.04488968104124069,
                    0.06485488265752792,
                    -0.08626057207584381,
                    0.07341838628053665,
                    0.07722709327936172,
                    -0.08828699588775635,
                    0.0872066393494606,
                    -0.02622455358505249,
                    0.025205247104167938,
                    -0.013376258313655853,
                    -0.09210791438817978,
                    -0.030417799949645996,
                    0.08174992352724075,
                    0.03238929063081741,
                    0.08265938609838486,
                    0.034519486129283905,
                    -0.05690786615014076,
                    0.008401751518249512,
                    0.0888790562748909,
                    -0.030246898531913757,
                    0.005825981497764587,
                    0.02466811239719391,
                    -0.0025910213589668274,
                    0.06004517525434494,
                    0.023587748408317566,
                    0.09650868922472,
                    0.033500172197818756,
                    -0.08387401700019836,
                    0.004886016249656677,
                    -0.02378307282924652,
                    -0.09327372163534164,
                    0.009714044630527496,
                    0.03314005583524704,
                    0.017966248095035553,
                    0.041453294456005096,
                    -0.09271217882633209,
                    -0.009781181812286377,
                    -0.06793725490570068,
                    -0.06117435172200203,
                    -0.09098483622074127,
                    0.06479384750127792,
                    -0.01495102047920227,
                    0.001718185842037201,
                    0.09896846860647202,
                    0.026651807129383087,
                    -0.0983947291970253,
                    0.0537949874997139,
                    -0.08712118864059448,
                    -0.05166478455066681,
                    0.02479628473520279,
                    0.08395946770906448,
                    0.029831834137439728,
                    -0.044773705303668976,
                    -0.009347818791866302,
                    0.0474715456366539,
                    0.09391460567712784,
                    0.08546709269285202,
                    0.07355266064405441,
                    0.05493027716875076,
                    0.07226478308439255,
                    0.04083072394132614,
                    0.05846431106328964,
                    -0.019620344042778015,
                    -0.04430372267961502,
                    -0.09008148312568665,
                    -0.0035187825560569763,
                    0.01988891512155533,
                    0.008139289915561676,
                    0.04484695941209793,
                    0.0997619554400444,
                    0.03162633627653122,
                    0.07111728936433792,
                    -0.027341529726982117,
                    -0.0678701102733612,
                    -0.011001922190189362,
                    -0.07038483768701553,
                    -0.07716605067253113,
                    -0.04822840169072151,
                    -0.022214427590370178,
                    0.045548878610134125,
                    0.052006594836711884,
                    -0.03806573897600174,
                    0.06875515729188919,
                    0.0649220272898674,
                    -0.052824489772319794,
                    -0.07372966408729553,
                    0.096844382584095,
                    0.005233921110630035,
                    0.08879970759153366,
                    -0.09525132179260254,
                    0.07833797484636307,
                    -0.07089754939079285,
                    0.05473495274782181,
                    -0.03340250998735428,
                    0.09707022458314896,
                    0.010507524013519287,
                    -0.053422652184963226,
                    0.03639943152666092,
                    -0.008920565247535706,
                    -0.00015564262866973877,
                    0.019486069679260254,
                    -0.07031770050525665,
                    0.07093418389558792,
                    -0.005917534232139587,
                    -0.0032868459820747375,
                    -0.06581927090883255,
                    0.0008453577756881714,
                    -0.08177434653043747,
                    0.05022431164979935,
                    -0.006912440061569214,
                    0.07403486222028732,
                    0.024362921714782715,
                    -0.07145299017429352,
                    0.046440012753009796,
                    0.013418987393379211,
                    0.014523759484291077,
                    0.013168737292289734,
                    -0.012961208820343018,
                    -0.0710318312048912,
                    0.09367657452821732,
                    -0.015390485525131226,
                    -0.012961208820343018,
                    -0.03705252707004547,
                    -0.04103213548660278,
                    0.07965026050806046,
                    0.05146337300539017,
                    0.0542832687497139,
                    0.0316019132733345,
                    0.020700708031654358,
                    -0.04504837468266487,
                    -0.04667195677757263,
                    -0.06246833875775337,
                    -0.0012421011924743652,
                    0.017984554171562195,
                    -0.08169499784708023,
                    -0.056779686361551285,
                    -0.008902251720428467,
                    0.0787530168890953,
                    0.02460096776485443,
                    -0.047264017164707184,
                    -0.005001984536647797,
                    -0.08298898488283157,
                    -0.08184148371219635,
                    -0.027579575777053833,
                    0.05870235711336136,
                    0.08616291731595993,
                    -0.0556199848651886,
                    0.04939419776201248,
                    0.09094210714101791,
                    0.009726248681545258,
                    0.08355662971735,
                    -0.009854421019554138,
                    -0.06982940435409546,
                    0.09858394414186478,
                    0.024253055453300476,
                    0.06541641801595688,
                    0.05488754063844681,
                    -0.05488143488764763,
                    0.005789361894130707,
                    0.0077059268951416016,
                    0.01611682027578354,
                    -0.04938200116157532,
                    -0.03883480653166771,
                    -0.09241920709609985,
                    -0.026474811136722565,
                    0.04205756634473801,
                    -0.008413955569267273,
                    -0.08494216948747635,
                    0.016220591962337494,
                    0.034629352390766144,
                    -0.09613025188446045,
                    -0.04767296463251114,
                    0.04958952218294144,
                    0.09625232964754105,
                    0.04205145686864853,
                    -0.055937375873327255,
                    -0.07059236615896225,
                    0.0702139362692833,
                    -0.05570543557405472,
                    -0.0284707173705101,
                    0.02448500692844391,
                    -0.0876644179224968,
                    0.056547753512859344,
                    0.05679798871278763,
                    0.08901944011449814,
                    -0.001199379563331604,
                    0.033964045345783234,
                    -0.016739405691623688
                ]
            },
            {
                "b": 0.0,
                "w": [
                    0.02600482851266861,
                    -0.03908505663275719,
                    0.06160161644220352,
                    0.05879390984773636,
                    0.02292245626449585,
                    0.003146454691886902,
                    -0.07460860162973404,
                    0.027616210281848907,
                    0.040916167199611664,
                    -0.03946958854794502,
                    0.06483656913042068,
                    0.03737602382898331,
                    -0.06127201020717621,
                    0.051866210997104645,
                    -0.061479538679122925,
                    0.06745506078004837,
                    0.012680433690547943,
                    -0.015250101685523987,
                    -0.06615497171878815,
                    -0.075109101831913,
                    0.03389691561460495,
                    -0.031040377914905548,
                    -0.04791100695729256,
                    0.014181949198246002,
                    -0.03594164550304413,
                    0.09416485577821732,
                    -0.09987182170152664,
                    -0.012967310845851898,
                    0.03091219812631607,
                    0.0283791646361351,
                    0.020065918564796448,
                    0.07858211547136307,
                    -0.055198829621076584,
                    0.09343241900205612,
                    0.08797570317983627,
                    0.036082036793231964,
                    -0.06254768371582031,
                    0.07351603358983994,
                    0.013046659529209137,
                    0.046519361436367035,
                    0.004293955862522125,
                    0.013321325182914734,
                    0.06837672740221024,
                    -0.03079622983932495,
                    0.03152257949113846,
                    -0.03824274614453316,
                    0.08464308828115463,
                    0.0797906443476677,
                    -0.010800495743751526,
                    -0.0822809562087059,
                    0.037931449711322784,
                    0.0317545011639595,
                    0.07161778956651688,
                    -0.06599017977714539,
                    -0.037076935172080994,
                    0.04186224192380905,
                    -0.033860281109809875,
                    0.03569749742746353,
                    0.022763751447200775,
                    0.005526900291442871,
                    -0.0681142657995224,
                    -0.09077120572328568,
                    0.06679586321115494,
                    -0.05132908374071121,
                    0.06934111565351486,
                    0.01848505437374115,
                    -0.09257789701223373,
                    -0.0779656395316124,
                    0.06229742616415024,
                    -0.09603869915008545,
                    0.047410495579242706,
                    -0.05559556931257248,
                    -0.026725061237812042,
                    -0.07845393568277359,
                    0.08877528458833694,
                    -0.09916989505290985,
                    -0.02625507116317749,
                    -0.02313607931137085,
                    -0.04540848731994629,
                    0.0022736340761184692,
                    -0.00966520607471466,
                    -0.08837855607271194,
                    -0.04506668448448181,
                    -0.08726157248020172,
                    -0.05171361565589905,
                    0.09822992235422134,
                    0.028208263218402863,
                    -0.049693286418914795,
                    -0.006509594619274139,
                    0.09872432798147202,
                    -0.010855436325073242,
                    0.068175308406353,
                    -0.025785088539123535,
                    -0.0554673932492733,
                    -0.08538773655891418,
                    0.02210456132888794,
                    -0.036075934767723083,
                    0.0931638553738594,
                    0.09870601445436478,
                    0.030393384397029877,
                    -0.09371928870677948,
                    0.017978452146053314,
                    -0.09196753054857254,
                    -0.06733909249305725,
                    -0.03627125173807144,
                    0.08762169629335403,
                    -0.03113803267478943,
                    -0.046208079904317856,
                    0.05081027001142502,
                    0.09097873419523239,
                    0.01697133481502533,
                    0.07911313325166702,
                    -0.06649067997932434,
                    0.06415905803442001,
                    0.041746266186237335,
                    -0.052800074219703674,
                    -0.024130985140800476,
                    -0.024277471005916595,
                    0.055619977414608,
                    0.06652729958295822,
                    -0.08491775393486023,
                    -0.07375407963991165,
                    -0.0797906443476677,
                    0.062138743698596954,
                    -0.053575243800878525,
                    0.018717005848884583,
                    -0.03973204642534256,
                    -0.0413006953895092,
                    0.09912107139825821,
                    -0.044212162494659424,
                    -0.003176972270011902,
                    0.006106756627559662,
                    -0.015488140285015106,
                    -0.07971129566431046,
                    -0.06929227709770203,
                    0.0539170578122139,
                    0.09778434783220291,
                    -0.004831083118915558,
                    -0.09229102730751038,
                    -0.0191381573677063,
                    -0.04564043506979942,
                    0.07914365082979202,
                    -0.0033600851893424988,
                    -0.014267399907112122,
                    0.04241768270730972,
                    -0.045719780027866364,
                    0.011496320366859436,
                    0.045731984078884125,
                    0.0725821778178215,
                    0.061851866543293,
                    0.009067043662071228,
                    -0.051225319504737854,
                    -0.09381695091724396,
                    0.0425458624958992,
                    0.09316996484994888,
                    0.005825981497764587,
                    0.04329661279916763,
                    -0.0025544017553329468,
                    0.056730858981609344,
                    0.049516282975673676,
                    0.05171971768140793,
                    -0.07404705882072449,
                    0.09305398911237717,
                    0.025406666100025177,
                    0.01832026243209839,
                    0.09689932316541672,
                    -0.09252907335758209,
                    -0.017966248095035553,
                    0.0037995576858520508,
                    0.009097561240196228,
                    0.06064332276582718,
                    -0.03391522169113159,
                    -0.017703786492347717,
                    0.09766227751970291,
                    0.07470015436410904,
                    0.028824739158153534,
                    0.046983249485492706,
                    0.042197950184345245,
                    -0.06642964482307434,
                    0.05016937106847763,
                    -0.03712576627731323,
                    0.033237703144550323,
                    -0.09128391742706299,
                    -0.01344340294599533,
                    0.04827723652124405,
                    0.05313577502965927,
                    -0.0585375539958477,
                    0.048899807035923004,
                    0.06584369391202927,
                    -0.07235633581876755,
                    -0.08677938580513,
                    0.01687368005514145,
                    -0.09521470218896866,
                    0.004483163356781006,
                    0.0348857119679451,
                    -0.0042451247572898865,
                    -0.06471450626850128,
                    0.015018150210380554,
                    0.08662069588899612,
                    0.02215949445962906
                ]
            },
            {
                "b": 0.0,
                "w": [
                    0.016397595405578613,
                    -0.024460583925247192,
                    -0.060777612030506134,
                    0.02473524957895279,
                    0.03877376765012741,
                    0.08408764749765396,
                    0.08849453181028366,
                    -0.053672906011343,
                    -0.01661732792854309,
                    0.0693594291806221,
                    0.033610038459300995,
                    -0.06638691574335098,
                    -0.022525712847709656,
                    -0.0522751547396183,
                    0.03099154680967331,
                    0.0006134286522865295,
                    -0.07090365141630173,
                    0.04477981477975845,
                    0.05479598790407181,
                    0.07226478308439255,
                    0.02134770154953003,
                    0.03749809414148331,
                    0.09522690623998642,
                    0.014328442513942719,
                    0.04763633757829666,
                    0.07345499843358994,
                    0.02609638124704361,
                    -0.04411450773477554,
                    0.06926175206899643,
                    -0.07684255391359329,
                    -0.027317121624946594,
                    -0.08934903889894485,
                    -0.023551136255264282,
                    0.021890923380851746,
                    0.011288799345493317,
                    0.0033478885889053345,
                    0.03418988734483719,
                    -0.04278389737010002,
                    -0.06836451590061188,
                    -0.09256569296121597,
                    -0.005941949784755707,
                    0.05847042053937912,
                    0.09349345415830612,
                    0.00041810423135757446,
                    0.05334330350160599,
                    0.04444410651922226,
                    -0.09145481884479523,
                    0.042954809963703156,
                    0.042655713856220245,
                    -0.014505445957183838,
                    -0.020902127027511597,
                    0.08807336539030075,
                    -0.07667165249586105,
                    -0.0635853111743927,
                    0.02447279542684555,
                    0.026694543659687042,
                    -0.024192020297050476,
                    0.09619738906621933,
                    0.026688434183597565,
                    0.07576220482587814,
                    -0.03968321904540062,
                    0.05104220658540726,
                    -0.07354044914245605,
                    0.01515243947505951,
                    0.031070895493030548,
                    -0.043211158365011215,
                    -0.09910885989665985,
                    0.07971129566431046,
                    0.08519241958856583,
                    0.017093420028686523,
                    -0.04601886495947838,
                    -0.08741416782140732,
                    -0.07231971621513367,
                    -0.08651082217693329,
                    0.051353491842746735,
                    0.08617512136697769,
                    -0.0663197785615921,
                    -0.05626087263226509,
                    -0.06968902051448822,
                    -0.0031708702445030212,
                    -0.010812707245349884,
                    -0.07545091211795807,
                    0.016586802899837494,
                    0.03973815590143204,
                    -0.008426159620285034,
                    0.015079200267791748,
                    -0.021060824394226074,
                    0.07004912942647934,
                    0.09111911803483963,
                    -0.0827082097530365,
                    -0.04708090424537659,
                    0.056608788669109344,
                    -0.04519486054778099,
                    0.009659111499786377,
                    -0.0350077822804451,
                    -0.0654713585972786,
                    0.03363444656133652,
                    0.07014069706201553,
                    -0.011630609631538391,
                    -0.03715018182992935,
                    -0.08532670140266418,
                    -0.054979097098112106,
                    -0.03837091848254204,
                    -0.006534010171890259,
                    -0.06080813333392143,
                    0.019626453518867493,
                    0.001577809453010559,
                    -0.04227728769183159,
                    -0.03203527629375458,
                    0.047233499586582184,
                    -0.05856196954846382,
                    -0.023258157074451447,
                    0.07518845051527023,
                    -0.007528916001319885,
                    0.025699637830257416,
                    0.0019196122884750366,
                    0.052098147571086884,
                    0.045408494770526886,
                    0.0928586795926094,
                    -0.008304089307785034,
                    -0.09838251769542694,
                    0.0625843033194542,
                    0.07730033248662949,
                    -0.06911526620388031,
                    0.005313277244567871,
                    -0.00875575840473175,
                    -0.038425859063863754,
                    0.09891354292631149,
                    -0.05624256283044815,
                    -0.0669301450252533,
                    0.010287784039974213,
                    0.09305398911237717,
                    0.051805175840854645,
                    0.0035493001341819763,
                    0.01693471521139145,
                    0.013022243976593018,
                    0.08977020531892776,
                    0.04333323985338211,
                    -0.005191199481487274,
                    -0.08684042096138,
                    -0.08810389041900635,
                    -0.062218084931373596,
                    0.043351538479328156,
                    -0.07156285643577576,
                    -0.08660237491130829,
                    0.0010223761200904846,
                    0.021134063601493835,
                    -0.019473865628242493,
                    -0.0628223568201065,
                    -0.019418925046920776,
                    -0.043302714824676514,
                    0.07020173221826553,
                    0.02162846177816391,
                    -0.06087527051568031,
                    0.0285927876830101,
                    0.062321849167346954,
                    0.07067171484231949,
                    -0.030716881155967712,
                    0.0457380935549736,
                    -0.03032013773918152,
                    0.027311019599437714,
                    -0.002017274498939514,
                    0.059477515518665314,
                    0.04185003787279129,
                    0.031974248588085175,
                    0.03647267073392868,
                    0.03849910944700241,
                    0.06543474644422531,
                    -0.05316019058227539,
                    -0.06769920885562897,
                    0.03791924566030502,
                    -0.01816156506538391,
                    -0.0725516527891159,
                    -0.020499281585216522,
                    -0.006283760070800781,
                    0.028934605419635773,
                    0.022818684577941895,
                    0.04321116954088211,
                    -0.02616351842880249,
                    -0.08728598803281784,
                    0.08534500747919083,
                    -0.044981230050325394,
                    0.017197176814079285,
                    0.015378274023532867,
                    -0.028312020003795624,
                    0.03527023643255234,
                    -0.008194223046302795,
                    -0.05411237105727196,
                    -0.08403882384300232,
                    0.09852290898561478,
                    0.0032746344804763794,
                    0.03945738822221756,
                    0.05640735477209091,
                    -0.0014801472425460815,
                    -0.01500595360994339,
                    -0.08797571063041687,
                    -0.0031708702445030212,
                    0.06884671002626419,
                    0.0011749640107154846,
                    0.07614672929048538
                ]
            },
            {
                "b": 0.0,
                "w": [
                    -0.01590929925441742,
                    -0.08449659496545792,
                    0.09405500441789627,
                    -0.07565233111381531,
                    -0.017172768712043762,
                    -0.08225654065608978,
                    0.006442449986934662,
                    0.08646809309720993,
                    0.02869044989347458,
                    0.0933164432644844,
                    0.011008024215698242,
                    0.0668996199965477,
                    -0.05863521248102188,
                    0.08440504223108292,
                    -0.022666096687316895,
                    -0.03170567750930786,
                    -0.021384313702583313,
                    -0.07941831648349762,
                    -0.09180273115634918,
                    0.007809683680534363,
                    -0.08746299892663956,
                    -0.08507034927606583,
                    0.07623828202486038,
                    0.0321207270026207,
                    -0.09057588875293732,
                    -0.050431836396455765,
                    -0.007821895182132721,
                    -0.06238288804888725,
                    0.09428083151578903,
                    -0.09304177761077881,
                    -0.06392712891101837,
                    0.0018463730812072754,
                    -0.018539994955062866,
                    -0.09685659408569336,
                    0.0825861319899559,
                    0.03254187852144241,
                    0.05250098556280136,
                    0.07913755625486374,
                    -0.04830164462327957,
                    -0.05945921316742897,
                    0.06251106411218643,
                    0.00684531033039093,
                    0.01609240472316742,
                    0.04272285848855972,
                    -0.04372387006878853,
                    0.06564226001501083,
                    -0.0036713778972625732,
                    -0.09873653203248978,
                    -0.02453993260860443,
                    0.04590899497270584,
                    0.07528611272573471,
                    0.00554521381855011,
                    0.0379863902926445,
                    -0.06424451619386673,
                    -0.03710135072469711,
                    -0.09720450639724731,
                    -0.029026158154010773,
                    -0.052726831287145615,
                    0.04258858412504196,
                    0.08391065150499344,
                    0.07847224920988083,
                    -0.06162602826952934,
                    -0.06946317851543427,
                    0.030472733080387115,
                    0.025113679468631744,
                    0.08666951209306717,
                    0.07916196435689926,
                    -0.07049470394849777,
                    -0.08282418549060822,
                    -0.028476819396018982,
                    -0.044090092182159424,
                    0.06191901117563248,
                    -0.0379863865673542,
                    -0.0794244259595871,
                    0.028788112103939056,
                    -0.028897978365421295,
                    -0.01265602558851242,
                    -0.02308114618062973,
                    0.08966643363237381,
                    0.017850279808044434,
                    0.001535080373287201,
                    -0.056694235652685165,
                    -0.05317850410938263,
                    0.02782372385263443,
                    0.07613452523946762,
                    0.05948973447084427,
                    0.017819762229919434,
                    0.037870414555072784,
                    -0.06806543469429016,
                    -0.03096713125705719,
                    0.05405742675065994,
                    0.047428809106349945,
                    -0.09020966291427612,
                    -0.06812646985054016,
                    -0.071825310587883,
                    -0.018778041005134583,
                    -0.09251075983047485,
                    -0.06121708080172539,
                    -0.0843501091003418,
                    -0.030411697924137115,
                    -0.036179691553115845,
                    0.08402661234140396,
                    0.0017364993691444397,
                    -0.0474105067551136,
                    0.07120273262262344,
                    0.0525192990899086,
                    0.04504226893186569,
                    -0.08580279350280762,
                    0.09810174256563187,
                    0.07766655832529068,
                    -0.07092806696891785,
                    -0.047135837376117706,
                    0.0023957043886184692,
                    0.02612689882516861,
                    -0.06718650460243225,
                    0.09461653977632523,
                    0.017075106501579285,
                    -0.03414715826511383,
                    0.05178076773881912,
                    0.05496079474687576,
                    -0.010586872696876526,
                    0.07348551601171494,
                    -0.09935300797224045,
                    0.055955685675144196,
                    -0.04508499428629875,
                    0.03752861171960831,
                    -0.0711539089679718,
                    -0.0954771563410759,
                    -0.07272255420684814,
                    0.013449504971504211,
                    -0.01979125291109085,
                    0.03838922828435898,
                    -0.014358960092067719,
                    0.08700522035360336,
                    -0.071916863322258,
                    -0.054191719740629196,
                    0.04031800478696823,
                    -0.0980590209364891,
                    0.017050698399543762,
                    0.06542252749204636,
                    -0.041691333055496216,
                    0.00854213535785675,
                    0.04252754896879196,
                    -0.027616195380687714,
                    0.029844053089618683,
                    -0.011056855320930481,
                    -0.00047303736209869385,
                    -0.04286934807896614,
                    0.05715201050043106,
                    -0.08416089415550232,
                    -0.06818750500679016,
                    0.0029389411211013794,
                    0.04679403454065323,
                    0.0005157589912414551,
                    0.012692645192146301,
                    0.06852931529283524,
                    -0.013272501528263092,
                    -0.013388469815254211,
                    -0.011355936527252197,
                    0.08207953721284866,
                    0.08940397948026657,
                    -0.0541306808590889,
                    0.017209388315677643,
                    -0.047245707362890244,
                    -0.017893001437187195,
                    0.032065801322460175,
                    0.03013702481985092,
                    0.0060823410749435425,
                    0.025858335196971893,
                    0.04937589913606644,
                    0.05327004939317703,
                    -0.05058443173766136,
                    0.04401075094938278,
                    -0.008523821830749512,
                    0.014261305332183838,
                    -0.026291698217391968,
                    0.04193548113107681,
                    0.007583841681480408,
                    0.06946928054094315,
                    0.09786371141672134,
                    -0.0010589882731437683,
                    -0.04830774664878845,
                    -0.018771931529045105,
                    -0.03805963322520256,
                    -0.08632160723209381,
                    -0.02872096747159958,
                    -0.02324594557285309,
                    -0.02457045018672943,
                    -0.015616320073604584,
                    0.09169287234544754,
                    0.01993163675069809,
                    0.026816613972187042,
                    -0.0949583426117897,
                    0.05250098556280136,
                    -0.07271645218133926,
                    0.060777612030506134,
                    -0.04106875881552696,
                    -0.0479293167591095,
                    0.05930051952600479,
                    -0.07084261626005173
                ]
            },
            {
                "b": 0.0,
                "w": [
                    0.09056367725133896,
                    -0.04343699291348457,
                    0.01838129758834839,
                    0.02211066335439682,
                    0.03746757656335831,
                    0.029642634093761444,
                    0.0847468450665474,
                    0.08540605753660202,
                    -0.09702139347791672,
                    -0.06087527051568031,
                    0.02140263468027115,
                    -0.06949369609355927,
                    0.05128634721040726,
                    0.09689321368932724,
                    -0.020444348454475403,
                    0.04334544390439987,
                    -0.09405499696731567,
                    0.08815882354974747,
                    -0.06434828042984009,
                    -0.0018036440014839172,
                    -0.06672261655330658,
                    0.046549879014492035,
                    -0.008700832724571228,
                    0.08293404430150986,
                    -0.008359022438526154,
                    -0.06896267831325531,
                    -0.03267616778612137,
                    0.041795097291469574,
                    -0.07192297279834747,
                    0.06114383786916733,
                    0.02323983609676361,
                    -0.05795770138502121,
                    0.0034272298216819763,
                    -0.0334574431180954,
                    -0.0666554793715477,
                    0.07064730674028397,
                    0.027213357388973236,
                    -0.09254127740859985,
                    -0.04928433895111084,
                    0.06729636341333389,
                    -0.016458630561828613,
                    -0.07809992134571075,
                    0.09033174067735672,
                    5.1878392696380615e-05,
                    0.02927640825510025,
                    -0.04383373260498047,
                    -0.03741264343261719,
                    -0.010226748883724213,
                    0.045719780027866364,
                    -0.065196692943573,
                    -0.011526837944984436,
                    0.08960539847612381,
                    0.025070957839488983,
                    -0.07374797761440277,
                    -0.07238685339689255,
                    0.025858335196971893,
                    0.07286905497312546,
                    0.060454122722148895,
                    -0.049540698528289795,
                    -0.09358501434326172,
                    -0.0922544002532959,
                    -0.04537186771631241,
                    -0.014127016067504883,
                    -0.09701529145240784,
                    0.039695434272289276,
                    -0.09642323106527328,
                    -0.02464979887008667,
                    0.013437293469905853,
                    -0.0919797345995903,
                    -0.009384438395500183,
                    -0.0348551869392395,
                    -0.08956877887248993,
                    -0.03958556056022644,
                    -0.024503305554389954,
                    0.06752220541238785,
                    -0.01728873699903488,
                    -0.045750297605991364,
                    -0.08449049293994904,
                    0.022367015480995178,
                    -0.024900048971176147,
                    0.061363570392131805,
                    -0.02389904111623764,
                    -0.009469889104366302,
                    -0.06630756705999374,
                    0.05765252560377121,
                    -0.012912377715110779,
                    -0.09002654999494553,
                    0.062291331589221954,
                    -0.021347694098949432,
                    0.0009308084845542908,
                    0.04607989639043808,
                    -0.0035187825560569763,
                    -0.07758110761642456,
                    0.009146392345428467,
                    0.06736960262060165,
                    -0.0985167995095253,
                    -0.0191381573677063,
                    0.07318032532930374,
                    0.07785577327013016,
                    -0.09985961765050888,
                    -0.01908322423696518,
                    0.026029236614704132,
                    -0.06273079663515091,
                    0.03715018182992935,
                    0.01666615903377533,
                    0.0007354989647865295,
                    -0.09953001886606216,
                    0.0859614834189415,
                    0.0537949874997139,
                    -0.05783562734723091,
                    -0.09282204508781433,
                    0.004464849829673767,
                    -0.012509539723396301,
                    -0.04180120304226875,
                    -0.04659871384501457,
                    -0.054258860647678375,
                    0.03517868369817734,
                    0.06661275774240494,
                    0.07573778182268143,
                    0.0301736518740654,
                    0.04518876224756241,
                    -0.006057925522327423,
                    -0.020187988877296448,
                    -0.014914393424987793,
                    0.0027985423803329468,
                    -0.017447426915168762,
                    0.044138915836811066,
                    0.058305613696575165,
                    -0.08532670140266418,
                    0.062120430171489716,
                    -0.06946317851543427,
                    -0.08833582699298859,
                    -0.04683065414428711,
                    -0.05814081057906151,
                    -0.06743675470352173,
                    -0.09901120513677597,
                    0.04159977287054062,
                    -0.020303964614868164,
                    0.09296243637800217,
                    0.04851526767015457,
                    -0.03825495392084122,
                    -0.015390485525131226,
                    0.02157352864742279,
                    -0.08577227592468262,
                    -0.03501998633146286,
                    -0.09151585400104523,
                    0.04490188509225845,
                    0.07228919118642807,
                    -0.031955935060977936,
                    -0.016385391354560852,
                    0.018491163849830627,
                    -0.0013153478503227234,
                    -0.08510086685419083,
                    -0.03780938312411308,
                    0.033549003303050995,
                    0.07658009976148605,
                    -0.014157533645629883,
                    0.013968326151371002,
                    -0.051152076572179794,
                    -0.07457198202610016,
                    0.035123758018016815,
                    -0.06158330291509628,
                    -0.02063356339931488,
                    -0.03982360288500786,
                    -0.06168096140027046,
                    0.04755089432001114,
                    0.07275917381048203,
                    -0.013223670423030853,
                    0.030765719711780548,
                    -0.024283573031425476,
                    -0.0950193777680397,
                    -0.05966063588857651,
                    -0.08181096613407135,
                    -0.027414776384830475,
                    0.026334412395954132,
                    -0.02797020971775055,
                    0.04095279425382614,
                    -0.06439711153507233,
                    -0.010898157954216003,
                    -0.008890047669410706,
                    0.07291177660226822,
                    -0.06184576079249382,
                    -0.01189306378364563,
                    0.068266861140728,
                    -0.06353038549423218,
                    -0.09037446230649948,
                    0.04542069882154465,
                    0.0065523236989974976,
                    -0.08522293716669083,
                    0.02374645322561264,
                    0.07042146474123001,
                    0.08612627536058426,
                    0.0424543097615242,
                    0.051335178315639496,
                    0.026529736816883087,
                    0.08907438069581985,
                    0.05612660199403763,
                    0.033762626349925995,
                    -0.06417737901210785,
                    0.010580763220787048
                ]
            },
            {
                "b": 0.0,
                "w": [
                    0.08597368746995926,
                    -0.06663716584444046,
                    -0.047202982008457184,
                    -0.03733329474925995,
                    -0.030527666211128235,
                    0.017069004476070404,
                    0.038505204021930695,
                    0.07674489170312881,
                    -0.031241796910762787,
                    0.029453404247760773,
                    0.06633199006319046,
                    -0.08876308798789978,
                    -0.027329325675964355,
                    -0.08847621083259583,
                    0.09068574756383896,
                    -0.029386267066001892,
                    -0.035166479647159576,
                    -0.07854548841714859,
                    0.009817801415920258,
                    0.041856132447719574,
                    0.03905453532934189,
                    -0.08649861067533493,
                    -0.04598833993077278,
                    -0.04511551186442375,
                    -0.056846827268600464,
                    0.03139438480138779,
                    0.030466623604297638,
                    0.07301553338766098,
                    0.032627351582050323,
                    -0.027573473751544952,
                    -0.044004637748003006,
                    -0.08029114454984665,
                    0.015280619263648987,
                    0.07849056273698807,
                    0.008926667273044586,
                    0.04796595126390457,
                    -0.03182165324687958,
                    0.010312199592590332,
                    0.031382180750370026,
                    -0.041508227586746216,
                    0.008041635155677795,
                    0.061168260872364044,
                    -0.08684042096138,
                    -0.02703024446964264,
                    0.096478171646595,
                    0.06627704948186874,
                    0.0885738804936409,
                    0.06866360455751419,
                    -0.03882870078086853,
                    -0.03586840629577637,
                    0.07736747711896896,
                    -0.019425027072429657,
                    0.014395579695701599,
                    -0.03390911966562271,
                    0.0010528936982154846,
                    -0.022537916898727417,
                    0.04998017102479935,
                    -0.009640797972679138,
                    -0.09411603212356567,
                    0.017911314964294434,
                    8.849799633026123e-05,
                    -0.08328806608915329,
                    0.02375255525112152,
                    0.09273048490285873,
                    -0.06700338423252106,
                    -0.08185369521379471,
                    0.0021210312843322754,
                    0.059953607618808746,
                    -0.0268593430519104,
                    0.025785095989704132,
                    0.03449506312608719,
                    -0.021347694098949432,
                    -0.07534714788198471,
                    -0.016855373978614807,
                    -0.07759331166744232,
                    0.04782555252313614,
                    0.07972349971532822,
                    -0.05380108207464218,
                    0.0003753751516342163,
                    -0.04340037330985069,
                    -0.007095552980899811,
                    0.08536943048238754,
                    -0.04504837468266487,
                    -0.047935422509908676,
                    -0.09725333750247955,
                    0.04563433676958084,
                    0.06919462233781815,
                    0.03086947649717331,
                    -0.01808832585811615,
                    -0.07874691486358643,
                    -0.07626880705356598,
                    -0.03908505663275719,
                    0.09703970700502396,
                    -0.09895627200603485,
                    0.08582109957933426,
                    -0.06055177375674248,
                    0.059678949415683746,
                    0.04069032520055771,
                    0.01739250123500824,
                    -0.0063997358083724976,
                    0.04944915324449539,
                    -0.08176824450492859,
                    -0.06636250019073486,
                    -0.07014068961143494,
                    -0.009274572134017944,
                    0.029020048677921295,
                    0.04315011948347092,
                    -0.061412397772073746,
                    -0.03592944145202637,
                    0.07636035233736038,
                    -0.09904782474040985,
                    0.05987425893545151,
                    0.033732108771800995,
                    0.014108702540397644,
                    -0.09428083151578903,
                    0.016922511160373688,
                    -0.02765282243490219,
                    -0.0025116726756095886,
                    0.07235633581876755,
                    0.023343607783317566,
                    0.06420788913965225,
                    0.09834589809179306,
                    -0.08879970759153366,
                    0.07045198231935501,
                    0.06825465708971024,
                    -0.0589037761092186,
                    -0.05482650175690651,
                    -0.09906002879142761,
                    -0.0778740793466568,
                    -0.0843195915222168,
                    0.09600207954645157,
                    -0.024875633418560028,
                    0.068449966609478,
                    -0.07636035978794098,
                    0.07086702436208725,
                    0.03598437458276749,
                    -0.015384383499622345,
                    -0.08630939573049545,
                    -0.019290752708911896,
                    -0.020700708031654358,
                    -0.0025849193334579468,
                    -0.036960966885089874,
                    -0.07860042154788971,
                    0.035166479647159576,
                    -0.03642994910478592,
                    -0.03943907096982002,
                    -0.05095675587654114,
                    -0.033011868596076965,
                    0.09764397889375687,
                    0.04825892299413681,
                    -0.019290752708911896,
                    0.09439680725336075,
                    -0.07165440917015076,
                    0.07714163511991501,
                    0.05174412578344345,
                    0.04615924507379532,
                    0.06476332992315292,
                    0.03379925340414047,
                    0.06105837970972061,
                    0.04952239245176315,
                    -0.04659871384501457,
                    0.09396954625844955,
                    0.03545335680246353,
                    0.062004454433918,
                    -0.09229102730751038,
                    0.05924559384584427,
                    0.04445021599531174,
                    -0.04784997180104256,
                    -0.009054839611053467,
                    0.03331095725297928,
                    -0.003341779112815857,
                    0.03523971885442734,
                    0.033903010189533234,
                    0.0938047394156456,
                    0.04907681792974472,
                    -0.029581591486930847,
                    -0.0313882902264595,
                    0.016190066933631897,
                    0.06057008355855942,
                    -0.07463911920785904,
                    -0.04065981134772301,
                    0.005813777446746826,
                    0.02066408097743988,
                    0.014774009585380554,
                    -0.08791467547416687,
                    0.09441512078046799,
                    0.08505203574895859,
                    -0.08104800432920456,
                    0.043833740055561066,
                    -0.04268624261021614,
                    -0.051072727888822556,
                    0.08874476701021194,
                    0.09281594306230545,
                    0.007608257234096527,
                    -0.010489210486412048,
                    0.042954809963703156,
                    0.05109714716672897,
                    -0.07647022604942322,
                    -0.09105807542800903,
                    -0.035264141857624054
                ]
            },
            {
                "b": 0.0,
                "w": [
                    0.0005951151251792908,
                    0.06525162607431412,
                    -0.09119235724210739,
                    -0.09707022458314896,
                    -0.06606341898441315,
                    -0.06257210671901703,
                    -0.07241737097501755,
                    -0.01518295705318451,
                    -0.058720663189888,
                    -0.04631183668971062,
                    -0.02782982587814331,
                    -0.053617969155311584,
                    0.04441969841718674,
                    0.05927000194787979,
                    0.074895478785038,
                    -0.01352275162935257,
                    0.05942258983850479,
                    0.06818751245737076,
                    -0.09292580932378769,
                    0.050999484956264496,
                    -0.031003758311271667,
                    0.07107455283403397,
                    -0.019473865628242493,
                    -0.046574294567108154,
                    -0.014084294438362122,
                    -0.03004547208547592,
                    0.06819362193346024,
                    0.03794976323843002,
                    -0.011331520974636078,
                    0.09624011069536209,
                    -0.024863429367542267,
                    -0.008621476590633392,
                    -0.08933073282241821,
                    -0.03183385729789734,
                    0.09125340729951859,
                    -0.08982513099908829,
                    -0.03583177924156189,
                    -0.056016724556684494,
                    0.056773580610752106,
                    0.028812535107135773,
                    0.08026672154664993,
                    0.02701803296804428,
                    -0.028012938797473907,
                    0.015659049153327942,
                    0.04608600586652756,
                    -0.021030306816101074,
                    0.0823114737868309,
                    0.04277168959379196,
                    -0.07941831648349762,
                    -0.00227973610162735,
                    -0.029990538954734802,
                    -0.06430555135011673,
                    0.01002533733844757,
                    -0.08425244688987732,
                    -0.016165658831596375,
                    0.009646907448768616,
                    -0.015488140285015106,
                    -0.024430066347122192,
                    -0.062260814011096954,
                    0.0982116088271141,
                    0.01678822934627533,
                    -0.06165654584765434,
                    0.010061956942081451,
                    -0.01905880868434906,
                    -0.07545701414346695,
                    -0.018051698803901672,
                    0.07429731637239456,
                    -0.08400829881429672,
                    -0.0024994686245918274,
                    -0.05523545295000076,
                    -0.007254250347614288,
                    0.08408153802156448,
                    0.0904904380440712,
                    -0.028617210686206818,
                    -0.09560533612966537,
                    0.05002289265394211,
                    0.0637989416718483,
                    -0.08345896750688553,
                    0.03807183355093002,
                    0.048142947256565094,
                    -0.047923214733600616,
                    -0.03646046668291092,
                    0.08230537921190262,
                    -0.002291940152645111,
                    -0.05705435201525688,
                    0.013266399502754211,
                    0.04307077080011368,
                    0.05470443516969681,
                    -0.05334330350160599,
                    -0.09970702230930328,
                    0.02067629247903824,
                    0.0062044113874435425,
                    0.03802911192178726,
                    -0.00790734589099884,
                    0.037022002041339874,
                    -0.08644367754459381,
                    -0.04816126450896263,
                    0.02774437516927719,
                    -0.05548570305109024,
                    -0.08933073282241821,
                    -0.08691976964473724,
                    -0.04769127443432808,
                    -0.05213477090001106,
                    -0.03644215315580368,
                    -0.016861476004123688,
                    0.0032319054007530212,
                    -0.029953911900520325,
                    0.09757683426141739,
                    0.0032746344804763794,
                    0.004843279719352722,
                    -0.00639362633228302,
                    0.09835200756788254,
                    -0.08336131274700165,
                    -0.07260048389434814,
                    0.008658096194267273,
                    -0.007065035402774811,
                    -0.04996795579791069,
                    0.06679586321115494,
                    0.09872432798147202,
                    -0.08284249901771545,
                    0.036667995154857635,
                    -0.09879757463932037,
                    0.09576403349637985,
                    0.0756523385643959,
                    -0.03877377137541771,
                    -0.01902829110622406,
                    -0.06445203721523285,
                    0.0006073266267776489,
                    0.008426167070865631,
                    -0.09206518530845642,
                    -0.055272072553634644,
                    0.015744492411613464,
                    -0.003689691424369812,
                    -0.03957335278391838,
                    -0.009268470108509064,
                    -0.08854945749044418,
                    0.07564622908830643,
                    0.020285651087760925,
                    -0.07418744266033173,
                    -0.062346260994672775,
                    -0.023526713252067566,
                    -0.04201483353972435,
                    0.056578271090984344,
                    -0.0796075314283371,
                    0.08327586203813553,
                    -0.06766869127750397,
                    0.07001251727342606,
                    0.00854213535785675,
                    0.01981566846370697,
                    -0.039237648248672485,
                    -0.05249489098787308,
                    0.05684683471918106,
                    -0.07490768283605576,
                    0.01662953943014145,
                    0.0979979857802391,
                    -0.04847865179181099,
                    -0.09852290898561478,
                    0.009714044630527496,
                    0.041441090404987335,
                    0.0847163274884224,
                    0.016415908932685852,
                    -0.09382915496826172,
                    0.07402264326810837,
                    0.08398998528718948,
                    -0.06116214394569397,
                    -0.055833615362644196,
                    0.04618976265192032,
                    0.0031952857971191406,
                    -0.008310191333293915,
                    0.0014801472425460815,
                    0.0848383978009224,
                    0.08087710291147232,
                    -0.09838862717151642,
                    0.07133091241121292,
                    -0.009103670716285706,
                    0.07253334671258926,
                    0.027213357388973236,
                    -0.09739982336759567,
                    -0.05643177777528763,
                    0.06293832510709763,
                    -0.05293435603380203,
                    -0.03915829584002495,
                    0.04241768270730972,
                    -0.035190895199775696,
                    -0.011258281767368317,
                    -0.033848077058792114,
                    -0.08135929703712463,
                    0.010043643414974213,
                    -0.01987670361995697,
                    -0.03569139540195465,
                    -0.05327005684375763,
                    0.039756469428539276,
                    0.004177987575531006,
                    -0.01265602558851242,
                    0.08770715445280075,
                    0.09945067018270493,
                    0.038566239178180695,
                    0.059819333255290985,
                    0.0953550860285759,
                    -0.054533522576093674
                ]
            },
            {
                "b": 0.0,
                "w": [
                    0.061210982501506805,
                    0.007034517824649811,
                    -0.08350779861211777,
                    -0.03093661367893219,
                    -0.09685049206018448,
                    0.02148197591304779,
                    0.016733303666114807,
                    -0.05574816092848778,
                    0.0299600288271904,
                    0.04371776431798935,
                    0.06277353316545486,
                    -0.09422589838504791,
                    -0.06719259917736053,
                    -0.08604694157838821,
                    0.09267555922269821,
                    -0.0366191565990448,
                    -0.08933073282241821,
                    -0.04940031096339226,
                    0.005221709609031677,
                    -0.04131901264190674,
                    -0.07526169717311859,
                    -0.08801233023405075,
                    0.09971923381090164,
                    -0.029148228466510773,
                    -0.09365825355052948,
                    -0.00240180641412735,
                    0.0973631963133812,
                    -0.022605061531066895,
                    -0.00035706907510757446,
                    0.04493851214647293,
                    -0.024430066347122192,
                    0.07621998339891434,
                    -0.07962584495544434,
                    -0.021604053676128387,
                    0.046427808701992035,
                    -0.02467421442270279,
                    -0.08818934112787247,
                    0.06630756705999374,
                    0.010501421988010406,
                    -0.04367504268884659,
                    0.07925962656736374,
                    0.0424543097615242,
                    0.017325356602668762,
                    0.017972350120544434,
                    -0.015683457255363464,
                    0.04828334599733353,
                    0.06375622004270554,
                    0.0061128586530685425,
                    0.08019348233938217,
                    0.05205542594194412,
                    -0.038517411798238754,
                    0.03615529090166092,
                    0.06917630881071091,
                    -0.0987609475851059,
                    0.004934847354888916,
                    0.014389477670192719,
                    -0.03623463213443756,
                    0.06432386487722397,
                    -0.029203161597251892,
                    -0.03563036024570465,
                    -0.0675344169139862,
                    0.01832026243209839,
                    -0.019553206861019135,
                    -0.035367898643016815,
                    -0.08837244659662247,
                    -0.0617297887802124,
                    0.056517235934734344,
                    0.00400707870721817,
                    0.06454359740018845,
                    0.04492019861936569,
                    -0.09513535350561142,
                    -0.039262063801288605,
                    0.06909696012735367,
                    0.06683249026536942,
                    -0.04683675989508629,
                    0.011673331260681152,
                    -0.08487502485513687,
                    -0.026761680841445923,
                    -0.022611163556575775,
                    0.07781914621591568,
                    -0.00715048611164093,
                    0.03384808450937271,
                    -0.05256813392043114,
                    0.012442395091056824,
                    -0.046494949609041214,
                    -0.0382000207901001,
                    0.02317880094051361,
                    -0.06201056018471718,
                    -0.07642140239477158,
                    -0.0038361772894859314,
                    -0.06790673732757568,
                    0.03815729171037674,
                    -0.046305734664201736,
                    0.08002258092164993,
                    0.059837646782398224,
                    0.011154517531394958,
                    0.083648182451725,
                    -0.009378336369991302,
                    0.08490554243326187,
                    0.0907040610909462,
                    -0.09544053673744202,
                    -0.02232428640127182,
                    0.08875087648630142,
                    0.04075136035680771,
                    -0.0002838224172592163,
                    -0.03389690816402435,
                    -0.027500227093696594,
                    0.030295737087726593,
                    -0.05500350892543793,
                    0.07950378209352493,
                    -0.0884517952799797,
                    -0.0054292455315589905,
                    0.050456248223781586,
                    -0.05945311114192009,
                    0.07934506982564926,
                    -0.011246070265769958,
                    -0.07592089474201202,
                    -0.09534287452697754,
                    -0.02851344645023346,
                    -0.05946531519293785,
                    0.03914608806371689,
                    0.08301340788602829,
                    -0.038425859063863754,
                    -0.0922238826751709,
                    -0.013773009181022644,
                    -0.08867152780294418,
                    0.01983398199081421,
                    0.047465451061725616,
                    -0.008639790117740631,
                    -0.07935728132724762,
                    0.025962091982364655,
                    0.0022553205490112305,
                    -0.018662072718143463,
                    0.0661977007985115,
                    0.007315292954444885,
                    -0.08914761990308762,
                    -0.022373124957084656,
                    0.07080598920583725,
                    -0.0662282183766365,
                    -0.05150608718395233,
                    0.0999755933880806,
                    -0.06100955232977867,
                    0.0004852414131164551,
                    0.0036835819482803345,
                    -0.03893246129155159,
                    0.09801018983125687,
                    0.029715873301029205,
                    -0.00243232399225235,
                    -0.06651508808135986,
                    -0.07795342803001404,
                    -0.07684255391359329,
                    0.0521530881524086,
                    0.07007964700460434,
                    0.09600818902254105,
                    -0.0041840821504592896,
                    0.013534963130950928,
                    -0.040794093161821365,
                    -0.025199130177497864,
                    -0.07719046622514725,
                    -0.06348765641450882,
                    0.09595324844121933,
                    -0.005197301506996155,
                    -0.06967070698738098,
                    0.036759547889232635,
                    0.050578318536281586,
                    0.09332866221666336,
                    -0.03802911564707756,
                    -0.08318430185317993,
                    0.015555284917354584,
                    -0.007309183478355408,
                    0.05168309062719345,
                    -0.02781762182712555,
                    0.012314222753047943,
                    -0.0951109379529953,
                    0.03465377539396286,
                    -0.016287729144096375,
                    -0.06100345030426979,
                    -0.08671834319829941,
                    0.027311019599437714,
                    0.0026032328605651855,
                    -0.05944700539112091,
                    -0.012540057301521301,
                    0.00772424042224884,
                    -0.06579485535621643,
                    0.08225654810667038,
                    0.0875423476099968,
                    -0.07237464189529419,
                    -0.07305826246738434,
                    0.008041635155677795,
                    -0.08577227592468262,
                    0.0873592421412468,
                    -0.027518540620803833,
                    -0.03514816612005234,
                    -0.039213236421346664,
                    0.004904329776763916,
                    0.023563340306282043,
                    0.07424848526716232,
                    0.02319711446762085,
                    -0.08961150050163269,
                    0.035630352795124054
                ]
            },
            {
                "b": 0.0,
                "w": [
                    0.03251032903790474,
                    0.02479018270969391,
                    0.097174733877182,
                    0.038519926369190216,
                    -0.0794549435377121,
                    -0.08837499469518661,
                    0.06078983098268509,
                    0.04448073357343674,
                    -0.09520859271287918,
                    0.07472456246614456,
                    0.05713864415884018,
                    0.09882508218288422,
                    -0.08962495625019073,
                    0.055619977414608,
                    0.010977506637573242,
                    0.07934318482875824,
                    0.04780270531773567,
                    -0.008741172030568123,
                    0.006097031757235527,
                    -0.049204252660274506,
                    0.07438845187425613,
                    -0.0453350767493248,
                    0.08833887428045273,
                    0.08081606775522232,
                    0.07175702601671219,
                    0.0475713349878788,
                    0.0128025496378541,
                    -0.07673878967761993,
                    0.020541008561849594,
                    0.0011474324855953455,
                    0.06649969518184662,
                    0.07555663585662842,
                    0.05372784286737442,
                    -0.05864131450653076,
                    -0.0025609182193875313,
                    0.015897098928689957,
                    0.06946682929992676,
                    0.07485275715589523,
                    -0.01813104748725891,
                    -0.07295449823141098,
                    0.08527176827192307,
                    -0.048106323927640915,
                    0.060468390583992004,
                    -0.08753624558448792,
                    0.014291822910308838,
                    0.0625232681632042,
                    -0.025034330785274506,
                    0.011420576833188534,
                    0.04506058245897293,
                    0.022062357515096664,
                    0.0365276113152504,
                    -0.08088517934083939,
                    -0.09388928860425949,
                    -0.0975860059261322,
                    -0.043174535036087036,
                    0.018198195844888687,
                    -0.0034202877432107925,
                    -0.03464851528406143,
                    0.07342839241027832,
                    0.02770368754863739,
                    0.06396985799074173,
                    -0.0461910143494606,
                    -0.09956663846969604,
                    0.0760795995593071,
                    0.010707195848226547,
                    -0.0020785233937203884,
                    0.03593554347753525,
                    -0.09599044173955917,
                    -0.0899401381611824,
                    0.09150636196136475,
                    -0.04288676008582115,
                    0.003732464276254177,
                    0.013473892584443092,
                    -0.004343434702605009,
                    -0.06522110849618912,
                    0.0009857109980657697,
                    0.029895953834056854,
                    -0.07459403574466705,
                    -0.002029547467827797,
                    0.08556794375181198,
                    0.05867793411016464,
                    0.07607228308916092,
                    -0.019492292776703835,
                    -0.002782351104542613,
                    0.05740226060152054,
                    -0.054986439645290375,
                    -0.01979125291109085,
                    -0.02743310108780861,
                    0.025475919246673584,
                    -0.09442055225372314,
                    0.06238899379968643,
                    -0.040012817829847336,
                    -0.014798341318964958,
                    -0.01096196286380291,
                    -0.0613614022731781,
                    -0.09204687923192978,
                    -0.05883053317666054,
                    -0.06877100467681885,
                    0.0523625947535038,
                    0.03370768576860428,
                    0.0996398851275444,
                    0.03975812718272209,
                    0.002022544387727976,
                    0.07809381932020187,
                    -0.07128425687551498,
                    -0.0619739405810833,
                    -0.06613665819168091,
                    0.05311308056116104,
                    -0.05901307240128517,
                    -0.05725577473640442,
                    0.03454389423131943,
                    0.08819545060396194,
                    -0.020497974008321762,
                    -0.06929227709770203,
                    -0.044145215302705765,
                    0.08159124106168747,
                    0.08864674717187881,
                    0.05129166692495346,
                    -0.09791863709688187,
                    -0.036875516176223755,
                    -0.04905850440263748,
                    -0.05903641879558563,
                    0.011593894101679325,
                    0.0744512677192688,
                    -0.02878810465335846,
                    -0.004076600540429354,
                    -0.036231376230716705,
                    0.07320474833250046,
                    -0.010855436325073242,
                    -0.04065363481640816,
                    0.042642030864953995,
                    0.06719596683979034,
                    -0.09829706698656082,
                    -0.020963162183761597,
                    -0.011676549911499023,
                    -0.0150546720251441,
                    -0.023424504324793816,
                    -0.007604615297168493,
                    0.06772362440824509,
                    0.08879837393760681,
                    -0.062298838049173355,
                    -0.005709055811166763,
                    0.09547463804483414,
                    0.036886461079120636,
                    0.004680924583226442,
                    0.04460204765200615,
                    0.036637477576732635,
                    2.3497448637499474e-05,
                    -0.03350627422332764,
                    -0.028755424544215202,
                    -0.07770927995443344,
                    0.04029969125986099,
                    0.0716337114572525,
                    0.025447526946663857,
                    -0.09083590656518936,
                    0.05669710040092468,
                    0.01521958690136671,
                    0.044865258038043976,
                    0.014750408940017223,
                    -0.09494002908468246,
                    0.004854794126003981,
                    -0.0185209009796381,
                    -0.04100161790847778,
                    -0.002134059788659215,
                    -0.013930276036262512,
                    -0.04998447746038437,
                    0.04399707540869713,
                    -0.009642014279961586,
                    0.008811037987470627,
                    0.05332134664058685,
                    -0.09738761931657791,
                    0.05931613966822624,
                    0.01636631228029728,
                    -0.0589742548763752,
                    0.04778541252017021,
                    -0.019466908648610115,
                    0.037552475929260254,
                    -0.042374949902296066,
                    0.05318460613489151,
                    -0.08840686827898026,
                    0.06384969502687454,
                    0.0362224206328392,
                    0.09694918245077133,
                    0.08578448742628098,
                    -0.007553276605904102,
                    -0.00574661185964942,
                    0.09950561076402664,
                    -0.0764424279332161,
                    -0.08332471549510956,
                    -0.012552260421216488,
                    -0.013266395777463913,
                    -0.0319681391119957,
                    -0.05519379675388336,
                    -0.021811582148075104,
                    -0.09011821448802948,
                    -0.049613941460847855,
                    0.02870265394449234,
                    -0.025401053950190544,
                    -0.0467660129070282,
                    -0.00834270566701889
                ]
            },
            {
                "b": 0.0,
                "w": [
                    -0.016502276062965393,
                    0.09662024676799774,
                    -0.03898671641945839,
                    0.047007884830236435,
                    -0.020465165376663208,
                    0.025215784087777138,
                    0.01478605717420578,
                    -0.0007258307305164635,
                    0.08772054314613342,
                    0.09094784408807755,
                    -0.007946391589939594,
                    -0.09343519806861877,
                    -0.04013378545641899,
                    -0.04126448184251785,
                    -0.061606477946043015,
                    0.012504157610237598,
                    0.024623902514576912,
                    -0.036200571805238724,
                    0.08325422555208206,
                    0.023144368082284927,
                    0.08134500682353973,
                    0.05653190240263939,
                    0.031188752502202988,
                    0.05787184461951256,
                    0.07174883037805557,
                    0.011241653934121132,
                    -0.04003656283020973,
                    -0.019353339448571205,
                    -0.08812316507101059,
                    0.05597155913710594,
                    -0.04345496743917465,
                    -0.08262374997138977,
                    -0.03501997888088226,
                    -0.02059801295399666,
                    -0.07822611182928085,
                    0.06581316143274307,
                    0.03613297641277313,
                    0.07023779302835464,
                    -0.023984426632523537,
                    0.004456350579857826,
                    0.07114370912313461,
                    -0.05311669409275055,
                    -0.0038867113180458546,
                    0.006447725463658571,
                    0.03990909457206726,
                    0.032609373331069946,
                    0.015261702239513397,
                    -0.03531621769070625,
                    -0.014469180256128311,
                    -0.0681493803858757,
                    -0.08279779553413391,
                    0.03476879000663757,
                    -0.07892768830060959,
                    0.06626506894826889,
                    -0.04434660077095032,
                    0.0015848273178562522,
                    -0.045322053134441376,
                    0.02362697385251522,
                    -0.06976114958524704,
                    0.07575920969247818,
                    -0.07576834410429001,
                    -0.021400509402155876,
                    -0.049351565539836884,
                    -0.07264935970306396,
                    -0.07616083323955536,
                    0.03996967151761055,
                    0.019748756662011147,
                    0.060566190630197525,
                    0.0011821421794593334,
                    0.08091926574707031,
                    -0.03277362510561943,
                    -0.061265911906957626,
                    0.009860512800514698,
                    -0.0907120630145073,
                    -0.03562507405877113,
                    -0.03598477691411972,
                    0.0957501158118248,
                    -0.06709226965904236,
                    -0.04764259234070778,
                    -0.08230742067098618,
                    -0.0011353354202583432,
                    -0.022630026564002037,
                    0.014684545807540417,
                    -0.030904848128557205,
                    0.05417340248823166,
                    0.011881873942911625,
                    0.024173887446522713,
                    0.057402126491069794,
                    0.06863673776388168,
                    0.039649441838264465,
                    -0.0021839060354977846,
                    -0.045670948922634125,
                    -0.03955133259296417,
                    -0.09187698364257813,
                    0.08853067457675934,
                    0.01264776848256588,
                    -0.06333481520414352,
                    0.09789630025625229,
                    0.046499453485012054,
                    -0.09260834753513336,
                    0.09594104439020157,
                    0.043247025460004807,
                    0.08055799454450607,
                    -0.024014761671423912,
                    0.03223683685064316,
                    0.042812831699848175,
                    -0.04783801734447479,
                    0.0633482113480568,
                    -0.07497596740722656,
                    -0.08415718376636505,
                    0.03082188405096531,
                    0.07835017889738083,
                    0.09461644291877747,
                    0.06049668788909912,
                    -0.0551539771258831,
                    -0.032084085047245026,
                    -0.09490492194890976,
                    0.0702696219086647,
                    -0.04318463057279587,
                    -0.08517620712518692,
                    -0.004440799821168184,
                    -0.035201121121644974,
                    0.0962337851524353,
                    0.06576864421367645,
                    -0.0784844234585762,
                    -0.008563532494008541,
                    -0.020537054166197777,
                    -0.00442431028932333,
                    -0.013192974030971527,
                    0.0540829561650753,
                    -0.05087508633732796,
                    0.01391732320189476,
                    -0.05187229812145233,
                    -0.07551819086074829,
                    0.06420048326253891,
                    -0.07868382334709167,
                    -0.027041710913181305,
                    0.09375344216823578,
                    -0.028897957876324654,
                    -0.08041365444660187,
                    -0.06779389083385468,
                    0.019071226939558983,
                    -0.01201549731194973,
                    0.08445873856544495,
                    0.008942985907196999,
                    0.022764405235648155,
                    0.033462513238191605,
                    -0.09574299305677414,
                    -0.09548943489789963,
                    -0.0010299856076017022,
                    -0.06993149220943451,
                    0.09468407183885574,
                    0.02280070260167122,
                    -0.01421718206256628,
                    -0.08488433063030243,
                    -0.008826655335724354,
                    -0.08522327244281769,
                    -0.04325404018163681,
                    0.08878936618566513,
                    -0.07028824090957642,
                    -0.036645084619522095,
                    0.09055084735155106,
                    0.031586773693561554,
                    -0.08118580281734467,
                    -0.008411486633121967,
                    0.07307752966880798,
                    -0.07720539718866348,
                    0.011116168461740017,
                    -0.027189720422029495,
                    0.08943552523851395,
                    -0.01108233816921711,
                    0.0796346440911293,
                    -0.07251715660095215,
                    0.06130817160010338,
                    0.01750428043305874,
                    0.005319296848028898,
                    -0.015783311799168587,
                    -0.013288534246385098,
                    -0.037605609744787216,
                    -0.017299961298704147,
                    0.08941098302602768,
                    -0.06270647794008255,
                    -0.023412270471453667,
                    -0.05109933018684387,
                    -0.05543367937207222,
                    -0.029276374727487564,
                    -0.09949943423271179,
                    0.04252311959862709,
                    0.05373689532279968,
                    -0.0865292102098465,
                    -0.06163822486996651,
                    0.09981673955917358,
                    0.062079451978206635,
                    0.07062781602144241,
                    -0.04591371491551399,
                    0.09206032752990723,
                    0.06628632545471191,
                    0.018658174201846123,
                    -0.08298595249652863,
                    -0.08690973371267319
                ]
            },
            {
                "b": 0.0,
                "w": [
                    0.07896033674478531,
                    -0.06153532490134239,
                    -0.07014282792806625,
                    0.02082345262169838,
                    -0.07246185094118118,
                    0.04275117814540863,
                    -0.03084500879049301,
                    -0.05875113978981972,
                    -0.030834417790174484,
                    -0.04353350028395653,
                    -0.03020174242556095,
                    -0.06138616427779198,
                    -0.09692249447107315,
                    0.005538689438253641,
                    -0.014698328450322151,
                    0.060722630470991135,
                    0.06098370999097824,
                    0.06885181367397308,
                    0.0545286126434803,
                    0.06342260539531708,
                    0.05822470039129257,
                    -0.04774633049964905,
                    -0.09382780641317368,
                    0.02201857976615429,
                    -0.01544440072029829,
                    -0.06114080548286438,
                    -0.06743264198303223,
                    -0.06514810770750046,
                    0.018616599962115288,
                    0.07241125404834747,
                    -0.03605125471949577,
                    -0.07408957183361053,
                    0.04477981477975845,
                    0.030805952847003937,
                    0.07407887279987335,
                    -0.04753865674138069,
                    -0.04463079199194908,
                    -0.05559777840971947,
                    -0.05091402679681778,
                    0.024024780839681625,
                    0.0187234990298748,
                    0.01716192439198494,
                    0.05002408102154732,
                    0.03893420472741127,
                    -0.005181868560612202,
                    -0.09467312693595886,
                    -0.09866372495889664,
                    0.044638726860284805,
                    -0.02140256017446518,
                    -0.08931034058332443,
                    -0.06439044326543808,
                    0.0283666905015707,
                    0.05413748323917389,
                    -0.054880447685718536,
                    0.02632340043783188,
                    0.04362248256802559,
                    -0.06097621098160744,
                    -0.07889560610055923,
                    -0.06032333895564079,
                    -0.020368535071611404,
                    -0.09876705706119537,
                    -0.07354757189750671,
                    0.03690624237060547,
                    -0.020108787342905998,
                    -0.07003390043973923,
                    0.03758198767900467,
                    0.05822571739554405,
                    0.014825779013335705,
                    0.04002736136317253,
                    -0.07089629024267197,
                    -0.080407053232193,
                    0.016568299382925034,
                    0.0941099300980568,
                    -0.06467821449041367,
                    -0.04628460481762886,
                    0.08170308172702789,
                    0.020545369014143944,
                    -0.08048221468925476,
                    -0.0738842710852623,
                    -0.05352429300546646,
                    0.01010350976139307,
                    0.00796634890139103,
                    0.05855557322502136,
                    0.04340850189328194,
                    -0.026151327416300774,
                    -0.054928008466959,
                    -0.01059197261929512,
                    -0.056846827268600464,
                    0.03954613581299782,
                    -0.07541541010141373,
                    -0.09588273614645004,
                    0.09027108550071716,
                    -0.02706410549581051,
                    0.05431484803557396,
                    -0.03456827253103256,
                    0.03628937900066376,
                    -0.09997772425413132,
                    -0.08883427083492279,
                    0.0751805230975151,
                    0.07921087741851807,
                    0.016922399401664734,
                    -0.05943458899855614,
                    0.09944506734609604,
                    -0.08693806827068329,
                    0.06267615407705307,
                    -0.041437093168497086,
                    -0.012255697511136532,
                    -0.003663887968286872,
                    0.04193606972694397,
                    -0.08784642815589905,
                    -0.08266773819923401,
                    0.043229442089796066,
                    -0.025404633954167366,
                    -0.046189773827791214,
                    0.09416740387678146,
                    -0.05449690669775009,
                    -0.04413609951734543,
                    -0.013227212242782116,
                    -0.05792304128408432,
                    -0.06957967579364777,
                    -0.09297461062669754,
                    -0.06254414469003677,
                    -0.088958740234375,
                    0.06154794991016388,
                    0.09874875098466873,
                    -0.08930286020040512,
                    0.03534204885363579,
                    0.08791156113147736,
                    0.02761629968881607,
                    0.08524763584136963,
                    0.07380630820989609,
                    -0.05137334391474724,
                    -0.07225867360830307,
                    -0.09622829407453537,
                    -0.036717094480991364,
                    -0.06102045252919197,
                    0.09814145416021347,
                    0.015902327373623848,
                    0.015299154445528984,
                    0.0432681068778038,
                    -0.0725383535027504,
                    -0.07130837440490723,
                    -0.011161512695252895,
                    0.043090563267469406,
                    -0.002738002222031355,
                    0.022419268265366554,
                    0.06966963410377502,
                    -0.09685283899307251,
                    -0.05502801761031151,
                    0.0856366902589798,
                    0.08739036321640015,
                    0.04656217619776726,
                    0.06803648173809052,
                    0.029230361804366112,
                    0.0015656758332625031,
                    0.01979353278875351,
                    -0.049925547093153,
                    -0.06841955333948135,
                    -0.011459366418421268,
                    -0.04147211089730263,
                    0.09066187590360641,
                    0.07468058913946152,
                    -0.04046457260847092,
                    -0.04291254281997681,
                    0.020405666902661324,
