{
    "layers": [
        [
            {
                "b": 0.0,
                "w": [
                    -0.09873653203248978,
                    0.019644759595394135,
                    -0.05093234404921532,
                    0.05388043075799942,
                    -0.08015076071023941,
                    -0.09827876091003418,
                    -0.046275217086076736,
                    0.09384746104478836,
                    0.018253125250339508,
                    0.011435285210609436,
                    0.030613116919994354,
                    -0.016971342265605927,
                    -0.022537916898727417,
                    0.09452498704195023,
                    -0.02383190393447876,
                    -0.06893826276063919,
                    0.07182531803846359,
                    -0.08171331137418747,
                    0.01748405396938324,
                    -0.0303262397646904,
                    -0.03281044960021973,
                    -0.09791253507137299,
                    -0.05419782176613808,
                    0.07713552564382553,
                    -0.027402564883232117,
                    0.08727987855672836,
                    0.03173620253801346,
                    -0.04222846031188965,
                    -0.07327799499034882,
                    0.0028290599584579468,
                    0.05326395481824875,
                    0.08281197398900986,
                    -0.09965208917856216,
                    0.08297676593065262,
                    0.06793726235628128,
                    0.09881588071584702,
                    -0.003903314471244812,
                    -0.00699789822101593,
                    0.06049073487520218,
                    0.009897150099277496,
                    0.026676230132579803,
                    -0.08050477504730225,
                    0.097027488052845,
                    0.04011658579111099,
                    -0.047117527574300766,
                    -0.018680378794670105,
                    -0.08284860104322433,
                    -0.017947934567928314,
                    0.06265144795179367,
                    0.017526783049106598,
                    -0.0047578364610672,
                    -0.06188848614692688,
                    -0.02767113596200943,
                    0,
                    0.0020538941025733948,
                    0.06055177003145218,
                    0.03149206191301346,
                    0.08632770925760269,
                    0.09804070740938187,
                    -0.0033783987164497375,
                    0.012515641748905182,
                    -0.008468881249427795,
                    -0.010489210486412048,
                    0.04506058245897293,
                    0.06618548184633255,
                    -0.06918241083621979,
                    -0.021030306816101074,
                    -0.0698782354593277,
                    0.02452772855758667,
                    0.09374981373548508,
                    -0.059202857315540314,
                    -0.000546284019947052,
                    0.032187871634960175,
                    -0.016428112983703613,
                    0,
                    -0.04794762656092644,
                    -0.012417986989021301,
                    0.018820762634277344,
                    0.020517602562904358,
                    -0.09744865447282791,
                    -0.024961091578006744,
                    -0.03816339373588562,
                    0.008462786674499512,
                    0.08807945996522903,
                    -0.030777916312217712,
                    -0.0694509744644165,
                    0.03802911192178726,
                    0.02392955869436264,
                    -0.006942965090274811,
                    0.04961394518613815,
                    0.05483870953321457,
                    0.014371171593666077,
                    0.010440386831760406,
                    0.0973631963133812,
                    0.013852342963218689,
                    0.02469862997531891,
                    -0.06505019962787628,
                    0.004629656672477722,
                    0.007809683680534363,
                    0.020914338529109955,
                    0.035850100219249725,
                    -0.03817560151219368,
                    -0.028928495943546295,
                    -0.01674550771713257,
                    -0.0774773433804512,
                    -0.009579762816429138,
                    -0.009921565651893616,
                    0.09974975138902664,
                    -0.01116672158241272,
                    -0.06482437252998352,
                    -0.04826502129435539,
                    -0.05388043075799942,
                    0.0983031764626503,
                    -0.06667989492416382,
                    -0.03910946846008301,
                    -0.04172185808420181,
                    -0.008285775780677795,
                    -0.08312326669692993,
                    0.05826898664236069,
                    0.003659166395664215,
                    -0.0018280595541000366,
                    0.004525899887084961,
                    0.06996368616819382,
                    -0.042448192834854126,
                    -0.06910916417837143,
                    -0.06088747829198837,
                    -0.08012024313211441,
                    0.09090549498796463,
                    -0.05091403052210808,
                    0.02711569517850876,
                    0.0363444909453392,
                    -0.024472787976264954,
                    0.06702781468629837,
                    -0.06365856528282166,
                    -0.01602526754140854,
                    -0.08669392764568329,
                    0.09169896692037582,
                    0.008059941232204437,
                    -0.04763023927807808,
                    -0.0046357661485672,
                    0.07015901058912277,
                    0.03982970863580704,
                    0.03254187852144241,
                    -0.00243232399225235,
                    0.027982421219348907,
                    -0.004709005355834961,
                    -0.0874507874250412,
                    0.018704794347286224,
                    0.07988830655813217,
                    -0.0028290599584579468,
                    -0.07643970847129822,
                    0.06735739856958389,
                    0.09395123273134232,
                    0.059715576469898224,
                    0.06747337430715561,
                    -0.09605090320110321,
                    -0.009469889104366302,
                    -0.08317209780216217,
                    -0.042545855045318604,
                    -0.055888544768095016,
                    0.05726798623800278,
                    0.0022248029708862305,
                    -0.09730827063322067,
                    -0.07043977081775665,
                    -0.03872493654489517,
                    -0.062340158969163895,
                    0.06842554360628128,
                    -0.027134008705615997,
                    0.039927370846271515,
                    -0.014236882328987122,
                    -0.05731681361794472,
                    0.08230537921190262,
                    -0.04866786673665047,
                    0.023441269993782043,
                    0.04091007262468338,
                    -0.02703024446964264,
                    0.0658925250172615,
                    0.09233985096216202,
                    0.0796990916132927,
                    0.07056184858083725,
                    0.08008361607789993,
                    0.08242134004831314,
                    -0.04904019460082054,
                    -0.08610187470912933,
                    0.033762626349925995,
                    0.005063019692897797,
                    -0.07230750471353531,
                    0.06260261684656143,
                    0.012253180146217346,
                    0.011819817125797272,
                    0.03267616778612137,
                    -0.08397167921066284,
                    -0.08557695150375366,
                    0.015164650976657867,
                    0.0012543052434921265,
                    -0.05014496296644211,
                    -0.0319376215338707,
                    0.06739402562379837,
                    -0.030417799949645996,
                    -0.02356944978237152
                ]
            },
            {
                "b": 0.0,
                "w": [
                    -0.026279494166374207,
                    -0.04595782235264778,
                    -0.08054140210151672,
                    -0.06477554142475128,
                    -0.041618090122938156,
                    -0.04205755516886711,
                    0.011069059371948242,
                    0.019638657569885254,
                    0.02009032666683197,
                    0.05028534680604935,
                    0.03483688086271286,
                    0.046324051916599274,
                    0.04488968104124069,
                    0.06485488265752792,
                    -0.08626057207584381,
                    0.07341838628053665,
                    0.07722709327936172,
                    -0.08828699588775635,
                    0.0872066393494606,
                    -0.02622455358505249,
                    0.025205247104167938,
                    0,
                    -0.09210791438817978,
                    -0.030417799949645996,
                    0.08174992352724075,
                    0.03238929063081741,
                    0.08265938609838486,
                    0.034519486129283905,
                    -0.05690786615014076,
                    0.008401751518249512,
                    0.0888790562748909,
                    -0.030246898531913757,
                    0.005825981497764587,
                    0.02466811239719391,
                    -0.0025910213589668274,
                    0.06004517525434494,
                    0.023587748408317566,
                    0.09650868922472,
                    0.033500172197818756,
                    -0.08387401700019836,
                    0.004886016249656677,
                    -0.02378307282924652,
                    -0.09327372163534164,
                    0.009714044630527496,
                    0.03314005583524704,
                    0.017966248095035553,
                    0.041453294456005096,
                    -0.09271217882633209,
                    -0.009781181812286377,
                    -0.06793725490570068,
                    -0.06117435172200203,
                    -0.09098483622074127,
                    0.06479384750127792,
                    -0.01495102047920227,
                    0.001718185842037201,
                    0.09896846860647202,
                    0.026651807129383087,
                    -0.0983947291970253,
                    0.0537949874997139,
                    -0.08712118864059448,
                    -0.05166478455066681,
                    0.02479628473520279,
                    0.08395946770906448,
                    0.029831834137439728,
                    -0.044773705303668976,
                    -0.009347818791866302,
                    0.0474715456366539,
                    0.09391460567712784,
                    0.08546709269285202,
                    0.07355266064405441,
                    0.05493027716875076,
                    0.07226478308439255,
                    0.04083072394132614,
                    0.05846431106328964,
                    -0.019620344042778015,
                    -0.04430372267961502,
                    -0.09008148312568665,
                    -0.0035187825560569763,
                    0.01988891512155533,
                    0.008139289915561676,
                    0.04484695941209793,
                    0.0997619554400444,
                    0,
                    0.07111728936433792,
                    -0.027341529726982117,
                    -0.0678701102733612,
                    -0.011001922190189362,
                    -0.07038483768701553,
                    -0.07716605067253113,
                    -0.04822840169072151,
                    -0.022214427590370178,
                    0.045548878610134125,
                    0.052006594836711884,
                    -0.03806573897600174,
                    0.06875515729188919,
                    0.0649220272898674,
                    -0.052824489772319794,
                    -0.07372966408729553,
                    0.096844382584095,
                    0.005233921110630035,
                    0.08879970759153366,
                    -0.09525132179260254,
                    0.07833797484636307,
                    -0.07089754939079285,
                    0.05473495274782181,
                    -0.03340250998735428,
                    0.09707022458314896,
                    0.010507524013519287,
                    -0.053422652184963226,
                    0.03639943152666092,
                    -0.008920565247535706,
                    -0.00015564262866973877,
                    0.019486069679260254,
                    -0.07031770050525665,
                    0.07093418389558792,
                    -0.005917534232139587,
                    -0.0032868459820747375,
                    -0.06581927090883255,
                    0.0008453577756881714,
                    -0.08177434653043747,
                    0.05022431164979935,
                    -0.006912440061569214,
                    0.07403486222028732,
                    0.024362921714782715,
                    -0.07145299017429352,
                    0.046440012753009796,
                    0.013418987393379211,
                    0.014523759484291077,
                    0.013168737292289734,
                    -0.012961208820343018,
                    -0.0710318312048912,
                    0.09367657452821732,
                    -0.015390485525131226,
                    -0.012961208820343018,
                    -0.03705252707004547,
                    -0.04103213548660278,
                    0.07965026050806046,
                    0.05146337300539017,
                    0.0542832687497139,
                    0.0316019132733345,
                    0.020700708031654358,
                    -0.04504837468266487,
                    -0.04667195677757263,
                    -0.06246833875775337,
                    -0.0012421011924743652,
                    0.017984554171562195,
                    -0.08169499784708023,
                    -0.056779686361551285,
                    -0.008902251720428467,
                    0.0787530168890953,
                    0.02460096776485443,
                    -0.047264017164707184,
                    -0.005001984536647797,
                    -0.08298898488283157,
                    -0.08184148371219635,
                    -0.027579575777053833,
                    0.05870235711336136,
                    0.08616291731595993,
                    -0.0556199848651886,
                    0.04939419776201248,
                    0.09094210714101791,
                    0.009726248681545258,
                    0.08355662971735,
                    -0.009854421019554138,
                    -0.06982940435409546,
                    0.09858394414186478,
                    0.024253055453300476,
                    0.06541641801595688,
                    0.05488754063844681,
                    -0.05488143488764763,
                    0.005789361894130707,
                    0.0077059268951416016,
                    0.01611682027578354,
                    -0.04938200116157532,
                    -0.03883480653166771,
                    -0.09241920709609985,
                    -0.026474811136722565,
                    0.04205756634473801,
                    -0.008413955569267273,
                    -0.08494216948747635,
                    0.016220591962337494,
                    0.034629352390766144,
                    -0.09613025188446045,
                    -0.04767296463251114,
                    0.04958952218294144,
                    0.09625232964754105,
                    0.04205145686864853,
                    -0.055937375873327255,
                    -0.07059236615896225,
                    0.0702139362692833,
                    -0.05570543557405472,
                    -0.0284707173705101,
                    0.02448500692844391,
                    -0.0876644179224968,
                    0.056547753512859344,
                    0.05679798871278763,
                    0.08901944011449814,
                    -0.001199379563331604,
                    0.033964045345783234,
                    -0.016739405691623688
                ]
            },
            {
                "b": 0.0,
                "w": [
                    0.02600482851266861,
                    -0.03908505663275719,
                    0.06160161644220352,
                    0.05879390984773636,
                    0.02292245626449585,
                    0.003146454691886902,
                    -0.07460860162973404,
                    0.027616210281848907,
                    0.040916167199611664,
                    -0.03946958854794502,
                    0.06483656913042068,
                    0.03737602382898331,
                    -0.06127201020717621,
                    0.051866210997104645,
                    -0.061479538679122925,
                    0.06745506078004837,
                    0.012680433690547943,
                    -0.015250101685523987,
                    -0.06615497171878815,
                    -0.075109101831913,
                    0.03389691561460495,
                    -0.031040377914905548,
                    -0.04791100695729256,
                    0.014181949198246002,
                    -0.03594164550304413,
                    0,
                    -0.09987182170152664,
                    -0.012967310845851898,
                    0.03091219812631607,
                    0.0283791646361351,
                    0.020065918564796448,
                    0.07858211547136307,
                    -0.055198829621076584,
                    0.09343241900205612,
                    0.08797570317983627,
                    0.036082036793231964,
                    -0.06254768371582031,
                    0.07351603358983994,
                    0.013046659529209137,
                    0.046519361436367035,
                    0.004293955862522125,
                    0.013321325182914734,
                    0.06837672740221024,
                    -0.03079622983932495,
                    0.03152257949113846,
                    -0.03824274614453316,
                    0.08464308828115463,
                    0.0797906443476677,
                    -0.010800495743751526,
                    -0.0822809562087059,
                    0.037931449711322784,
                    0.0317545011639595,
                    0.07161778956651688,
                    -0.06599017977714539,
                    -0.037076935172080994,
                    0.04186224192380905,
                    -0.033860281109809875,
                    0.03569749742746353,
                    0.022763751447200775,
                    0.005526900291442871,
                    -0.0681142657995224,
                    -0.09077120572328568,
                    0.06679586321115494,
                    -0.05132908374071121,
                    0,
                    0.01848505437374115,
                    -0.09257789701223373,
                    -0.0779656395316124,
                    0.06229742616415024,
                    -0.09603869915008545,
                    0.047410495579242706,
                    -0.05559556931257248,
                    -0.026725061237812042,
                    -0.07845393568277359,
                    0.08877528458833694,
                    -0.09916989505290985,
                    -0.02625507116317749,
                    -0.02313607931137085,
                    -0.04540848731994629,
                    0.0022736340761184692,
                    -0.00966520607471466,
                    -0.08837855607271194,
                    -0.04506668448448181,
                    -0.08726157248020172,
                    -0.05171361565589905,
                    0.09822992235422134,
                    0.028208263218402863,
                    -0.049693286418914795,
                    -0.006509594619274139,
                    0.09872432798147202,
                    -0.010855436325073242,
                    0.068175308406353,
                    -0.025785088539123535,
                    -0.0554673932492733,
                    -0.08538773655891418,
                    0.02210456132888794,
                    -0.036075934767723083,
                    0.0931638553738594,
                    0.09870601445436478,
                    0.030393384397029877,
                    -0.09371928870677948,
                    0.017978452146053314,
                    -0.09196753054857254,
                    -0.06733909249305725,
                    -0.03627125173807144,
                    0.08762169629335403,
                    -0.03113803267478943,
                    -0.046208079904317856,
                    0.05081027001142502,
                    0.09097873419523239,
                    0.01697133481502533,
                    0.07911313325166702,
                    -0.06649067997932434,
                    0.06415905803442001,
                    0.041746266186237335,
                    -0.052800074219703674,
                    -0.024130985140800476,
                    -0.024277471005916595,
                    0.055619977414608,
                    0.06652729958295822,
                    -0.08491775393486023,
                    -0.07375407963991165,
                    -0.0797906443476677,
                    0.062138743698596954,
                    -0.053575243800878525,
                    0.018717005848884583,
                    -0.03973204642534256,
                    -0.0413006953895092,
                    0.09912107139825821,
                    -0.044212162494659424,
                    -0.003176972270011902,
                    0.006106756627559662,
                    -0.015488140285015106,
                    -0.07971129566431046,
                    -0.06929227709770203,
                    0.0539170578122139,
                    0.09778434783220291,
                    -0.004831083118915558,
                    -0.09229102730751038,
                    -0.0191381573677063,
                    -0.04564043506979942,
                    0.07914365082979202,
                    -0.0033600851893424988,
                    -0.014267399907112122,
                    0.04241768270730972,
                    -0.045719780027866364,
                    0.011496320366859436,
                    0.045731984078884125,
                    0.0725821778178215,
                    0.061851866543293,
                    0.009067043662071228,
                    -0.051225319504737854,
                    -0.09381695091724396,
                    0.0425458624958992,
                    0.09316996484994888,
                    0.005825981497764587,
                    0.04329661279916763,
                    -0.0025544017553329468,
                    0.056730858981609344,
                    0.049516282975673676,
                    0.05171971768140793,
                    -0.07404705882072449,
                    0.09305398911237717,
                    0.025406666100025177,
                    0.01832026243209839,
                    0.09689932316541672,
                    -0.09252907335758209,
                    -0.017966248095035553,
                    0.0037995576858520508,
                    0.009097561240196228,
                    0.06064332276582718,
                    -0.03391522169113159,
                    -0.017703786492347717,
                    0.09766227751970291,
                    0.07470015436410904,
                    0.028824739158153534,
                    0.046983249485492706,
                    0.042197950184345245,
                    -0.06642964482307434,
                    0.05016937106847763,
                    -0.03712576627731323,
                    0.033237703144550323,
                    -0.09128391742706299,
                    -0.01344340294599533,
                    0.04827723652124405,
                    0.05313577502965927,
                    -0.0585375539958477,
                    0.048899807035923004,
                    0.06584369391202927,
                    -0.07235633581876755,
                    -0.08677938580513,
                    0.01687368005514145,
                    -0.09521470218896866,
                    0.004483163356781006,
                    0.0348857119679451,
                    -0.0042451247572898865,
                    -0.06471450626850128,
                    0.015018150210380554,
                    0.08662069588899612,
                    0.02215949445962906
                ]
            },
            {
                "b": 0.0,
                "w": [
                    0.016397595405578613,
                    -0.024460583925247192,
                    -0.060777612030506134,
                    0.02473524957895279,
                    0.03877376765012741,
                    0.08408764749765396,
                    0.08849453181028366,
                    -0.053672906011343,
                    -0.01661732792854309,
                    0.0693594291806221,
                    0.033610038459300995,
                    -0.06638691574335098,
                    -0.022525712847709656,
                    -0.0522751547396183,
                    0.03099154680967331,
                    0.0006134286522865295,
                    -0.07090365141630173,
                    0.04477981477975845,
                    0.05479598790407181,
                    0.07226478308439255,
                    0.02134770154953003,
                    0.03749809414148331,
                    0.09522690623998642,
                    0.014328442513942719,
                    0.04763633757829666,
                    0.07345499843358994,
                    0.02609638124704361,
                    -0.04411450773477554,
                    0.06926175206899643,
                    -0.07684255391359329,
                    -0.027317121624946594,
                    -0.08934903889894485,
                    -0.023551136255264282,
                    0.021890923380851746,
                    0.011288799345493317,
                    0.0033478885889053345,
                    0.03418988734483719,
                    -0.04278389737010002,
                    -0.06836451590061188,
                    -0.09256569296121597,
                    -0.005941949784755707,
                    0.05847042053937912,
                    0.09349345415830612,
                    0.00041810423135757446,
                    0.05334330350160599,
                    0.04444410651922226,
                    -0.09145481884479523,
                    0.042954809963703156,
                    0.042655713856220245,
                    -0.014505445957183838,
                    -0.020902127027511597,
                    0.08807336539030075,
                    -0.07667165249586105,
                    -0.0635853111743927,
                    0.02447279542684555,
                    0.026694543659687042,
                    -0.024192020297050476,
                    0.09619738906621933,
                    0.026688434183597565,
                    0.07576220482587814,
                    -0.03968321904540062,
                    0.05104220658540726,
                    -0.07354044914245605,
                    0.01515243947505951,
                    0.031070895493030548,
                    -0.043211158365011215,
                    -0.09910885989665985,
                    0.07971129566431046,
                    0.08519241958856583,
                    0.017093420028686523,
                    -0.04601886495947838,
                    -0.08741416782140732,
                    -0.07231971621513367,
                    -0.08651082217693329,
                    0.051353491842746735,
                    0.08617512136697769,
                    -0.0663197785615921,
                    -0.05626087263226509,
                    -0.06968902051448822,
                    -0.0031708702445030212,
                    -0.010812707245349884,
                    -0.07545091211795807,
                    0.016586802899837494,
                    0.03973815590143204,
                    -0.008426159620285034,
                    0.015079200267791748,
                    -0.021060824394226074,
                    0.07004912942647934,
                    0.09111911803483963,
                    -0.0827082097530365,
                    -0.04708090424537659,
                    0.056608788669109344,
                    -0.04519486054778099,
                    0.009659111499786377,
                    -0.0350077822804451,
                    -0.0654713585972786,
                    0.03363444656133652,
                    0.07014069706201553,
                    -0.011630609631538391,
                    -0.03715018182992935,
                    -0.08532670140266418,
                    -0.054979097098112106,
                    -0.03837091848254204,
                    -0.006534010171890259,
                    -0.06080813333392143,
                    0.019626453518867493,
                    0.001577809453010559,
                    -0.04227728769183159,
                    -0.03203527629375458,
                    0.047233499586582184,
                    -0.05856196954846382,
                    -0.023258157074451447,
                    0.07518845051527023,
                    -0.007528916001319885,
                    0.025699637830257416,
                    0.0019196122884750366,
                    0.052098147571086884,
                    0.045408494770526886,
                    0.0928586795926094,
                    -0.008304089307785034,
                    -0.09838251769542694,
                    0.0625843033194542,
                    0.07730033248662949,
                    -0.06911526620388031,
                    0.005313277244567871,
                    -0.00875575840473175,
                    0,
                    0.09891354292631149,
                    -0.05624256283044815,
                    -0.0669301450252533,
                    0.010287784039974213,
                    0.09305398911237717,
                    0.051805175840854645,
                    0.0035493001341819763,
                    0.01693471521139145,
                    0.013022243976593018,
                    0.08977020531892776,
                    0.04333323985338211,
                    -0.005191199481487274,
                    -0.08684042096138,
                    -0.08810389041900635,
                    -0.062218084931373596,
                    0.043351538479328156,
                    -0.07156285643577576,
                    -0.08660237491130829,
                    0.0010223761200904846,
                    0.021134063601493835,
                    -0.019473865628242493,
                    -0.0628223568201065,
                    -0.019418925046920776,
                    -0.043302714824676514,
                    0.07020173221826553,
                    0.02162846177816391,
                    -0.06087527051568031,
                    0.0285927876830101,
                    0.062321849167346954,
                    0.07067171484231949,
                    -0.030716881155967712,
                    0.0457380935549736,
                    -0.03032013773918152,
                    0.027311019599437714,
                    -0.002017274498939514,
                    0.059477515518665314,
                    0.04185003787279129,
                    0.031974248588085175,
                    0.03647267073392868,
                    0.03849910944700241,
                    0.06543474644422531,
                    -0.05316019058227539,
                    -0.06769920885562897,
                    0.03791924566030502,
                    -0.01816156506538391,
                    0,
                    -0.020499281585216522,
                    -0.006283760070800781,
                    0.028934605419635773,
                    0.022818684577941895,
                    0.04321116954088211,
                    -0.02616351842880249,
                    -0.08728598803281784,
                    0.08534500747919083,
                    -0.044981230050325394,
                    0.017197176814079285,
                    0.015378274023532867,
                    -0.028312020003795624,
                    0.03527023643255234,
                    -0.008194223046302795,
                    -0.05411237105727196,
                    -0.08403882384300232,
                    0.09852290898561478,
                    0.0032746344804763794,
                    0.03945738822221756,
                    0.05640735477209091,
                    -0.0014801472425460815,
                    -0.01500595360994339,
                    -0.08797571063041687,
                    -0.0031708702445030212,
                    0.06884671002626419,
                    0.0011749640107154846,
                    0.07614672929048538
                ]
            },
            {
                "b": 0.0,
                "w": [
                    -0.01590929925441742,
                    -0.08449659496545792,
                    0.09405500441789627,
                    -0.07565233111381531,
                    -0.017172768712043762,
                    -0.08225654065608978,
                    0.006442449986934662,
                    0.08646809309720993,
                    0.02869044989347458,
                    0.0933164432644844,
                    0.011008024215698242,
                    0.0668996199965477,
                    -0.05863521248102188,
                    0.08440504223108292,
                    -0.022666096687316895,
                    -0.03170567750930786,
                    -0.021384313702583313,
                    -0.07941831648349762,
                    -0.09180273115634918,
                    0.007809683680534363,
                    -0.08746299892663956,
                    -0.08507034927606583,
                    0.07623828202486038,
                    0.0321207270026207,
                    -0.09057588875293732,
                    -0.050431836396455765,
                    -0.007821895182132721,
                    -0.06238288804888725,
                    0.09428083151578903,
                    -0.09304177761077881,
                    -0.06392712891101837,
                    0.0018463730812072754,
                    -0.018539994955062866,
                    -0.09685659408569336,
                    0.0825861319899559,
                    0.03254187852144241,
                    0.05250098556280136,
                    0.07913755625486374,
                    -0.04830164462327957,
                    -0.05945921316742897,
                    0.06251106411218643,
                    0.00684531033039093,
                    0.01609240472316742,
                    0.04272285848855972,
                    -0.04372387006878853,
                    0.06564226001501083,
                    -0.0036713778972625732,
                    -0.09873653203248978,
                    -0.02453993260860443,
                    0.04590899497270584,
                    0.07528611272573471,
                    0,
                    0.0379863902926445,
                    -0.06424451619386673,
                    -0.03710135072469711,
                    -0.09720450639724731,
                    -0.029026158154010773,
                    -0.052726831287145615,
                    0.04258858412504196,
                    0.08391065150499344,
                    0.07847224920988083,
                    -0.06162602826952934,
                    -0.06946317851543427,
                    0.030472733080387115,
                    0.025113679468631744,
                    0.08666951209306717,
                    0.07916196435689926,
                    -0.07049470394849777,
                    -0.08282418549060822,
                    -0.028476819396018982,
                    -0.044090092182159424,
                    0.06191901117563248,
                    -0.0379863865673542,
                    -0.0794244259595871,
                    0.028788112103939056,
                    -0.028897978365421295,
                    -0.01265602558851242,
                    -0.02308114618062973,
                    0.08966643363237381,
                    0.017850279808044434,
                    0.001535080373287201,
                    -0.056694235652685165,
                    -0.05317850410938263,
                    0.02782372385263443,
                    0.07613452523946762,
                    0.05948973447084427,
                    0.017819762229919434,
                    0.037870414555072784,
                    -0.06806543469429016,
                    -0.03096713125705719,
                    0.05405742675065994,
                    0.047428809106349945,
                    -0.09020966291427612,
                    -0.06812646985054016,
                    -0.071825310587883,
                    -0.018778041005134583,
                    -0.09251075983047485,
                    -0.06121708080172539,
                    -0.0843501091003418,
                    -0.030411697924137115,
                    -0.036179691553115845,
                    0.08402661234140396,
                    0.0017364993691444397,
                    -0.0474105067551136,
                    0.07120273262262344,
                    0.0525192990899086,
                    0.04504226893186569,
                    -0.08580279350280762,
                    0.09810174256563187,
                    0.07766655832529068,
                    -0.07092806696891785,
                    -0.047135837376117706,
                    0.0023957043886184692,
                    0.02612689882516861,
                    -0.06718650460243225,
                    0.09461653977632523,
                    0.017075106501579285,
                    -0.03414715826511383,
                    0.05178076773881912,
                    0.05496079474687576,
                    -0.010586872696876526,
                    0.07348551601171494,
                    -0.09935300797224045,
                    0.055955685675144196,
                    -0.04508499428629875,
                    0.03752861171960831,
                    -0.0711539089679718,
                    -0.0954771563410759,
                    -0.07272255420684814,
                    0.013449504971504211,
                    -0.01979125291109085,
                    0.03838922828435898,
                    -0.014358960092067719,
                    0.08700522035360336,
                    -0.071916863322258,
                    -0.054191719740629196,
                    0.04031800478696823,
                    -0.0980590209364891,
                    0.017050698399543762,
                    0.06542252749204636,
                    -0.041691333055496216,
                    0.00854213535785675,
                    0,
                    -0.027616195380687714,
                    0.029844053089618683,
                    -0.011056855320930481,
                    -0.00047303736209869385,
                    -0.04286934807896614,
                    0.05715201050043106,
                    -0.08416089415550232,
                    -0.06818750500679016,
                    0.0029389411211013794,
                    0.04679403454065323,
                    0.0005157589912414551,
                    0.012692645192146301,
                    0.06852931529283524,
                    -0.013272501528263092,
                    -0.013388469815254211,
                    -0.011355936527252197,
                    0.08207953721284866,
                    0.08940397948026657,
                    -0.0541306808590889,
                    0.017209388315677643,
                    -0.047245707362890244,
                    -0.017893001437187195,
                    0.032065801322460175,
                    0.03013702481985092,
                    0.0060823410749435425,
                    0.025858335196971893,
                    0.04937589913606644,
                    0.05327004939317703,
                    -0.05058443173766136,
                    0.04401075094938278,
                    -0.008523821830749512,
                    0.014261305332183838,
                    -0.026291698217391968,
                    0.04193548113107681,
                    0.007583841681480408,
                    0.06946928054094315,
                    0.09786371141672134,
                    -0.0010589882731437683,
                    -0.04830774664878845,
                    -0.018771931529045105,
                    -0.03805963322520256,
                    -0.08632160723209381,
                    -0.02872096747159958,
                    -0.02324594557285309,
                    -0.02457045018672943,
                    -0.015616320073604584,
                    0.09169287234544754,
                    0.01993163675069809,
                    0.026816613972187042,
                    -0.0949583426117897,
                    0.05250098556280136,
                    -0.07271645218133926,
                    0.060777612030506134,
                    -0.04106875881552696,
                    -0.0479293167591095,
                    0.05930051952600479,
                    -0.07084261626005173
                ]
            },
            {
                "b": 0.0,
                "w": [
                    0.09056367725133896,
                    -0.04343699291348457,
                    0.01838129758834839,
                    0.02211066335439682,
                    0.03746757656335831,
                    0.029642634093761444,
                    0.0847468450665474,
                    0.08540605753660202,
                    -0.09702139347791672,
                    -0.06087527051568031,
                    0.02140263468027115,
                    -0.06949369609355927,
                    0.05128634721040726,
                    0.09689321368932724,
                    -0.020444348454475403,
                    0.04334544390439987,
                    -0.09405499696731567,
                    0.08815882354974747,
                    -0.06434828042984009,
                    -0.0018036440014839172,
                    -0.06672261655330658,
                    0.046549879014492035,
                    -0.008700832724571228,
                    0.08293404430150986,
                    -0.008359022438526154,
                    0,
                    -0.03267616778612137,
                    0.041795097291469574,
                    -0.07192297279834747,
                    0.06114383786916733,
                    0.02323983609676361,
                    -0.05795770138502121,
                    0.0034272298216819763,
                    -0.0334574431180954,
                    -0.0666554793715477,
                    0.07064730674028397,
                    0.027213357388973236,
                    -0.09254127740859985,
                    -0.04928433895111084,
                    0.06729636341333389,
                    -0.016458630561828613,
                    -0.07809992134571075,
                    0.09033174067735672,
                    5.1878392696380615e-05,
                    0.02927640825510025,
                    -0.04383373260498047,
                    -0.03741264343261719,
                    -0.010226748883724213,
                    0.045719780027866364,
                    -0.065196692943573,
                    -0.011526837944984436,
                    0.08960539847612381,
                    0.025070957839488983,
                    -0.07374797761440277,
                    -0.07238685339689255,
                    0.025858335196971893,
                    0.07286905497312546,
                    0.060454122722148895,
                    -0.049540698528289795,
                    -0.09358501434326172,
                    -0.0922544002532959,
                    -0.04537186771631241,
                    -0.014127016067504883,
                    -0.09701529145240784,
                    0.039695434272289276,
                    -0.09642323106527328,
                    -0.02464979887008667,
                    0.013437293469905853,
                    -0.0919797345995903,
                    -0.009384438395500183,
                    -0.0348551869392395,
                    -0.08956877887248993,
                    -0.03958556056022644,
                    -0.024503305554389954,
                    0.06752220541238785,
                    -0.01728873699903488,
                    -0.045750297605991364,
                    -0.08449049293994904,
                    0.022367015480995178,
                    -0.024900048971176147,
                    0.061363570392131805,
                    -0.02389904111623764,
                    -0.009469889104366302,
                    -0.06630756705999374,
                    0.05765252560377121,
                    -0.012912377715110779,
                    -0.09002654999494553,
                    0.062291331589221954,
                    -0.021347694098949432,
                    0.0009308084845542908,
                    0.04607989639043808,
                    -0.0035187825560569763,
                    -0.07758110761642456,
                    0.009146392345428467,
                    0.06736960262060165,
                    -0.0985167995095253,
                    -0.0191381573677063,
                    0.07318032532930374,
                    0.07785577327013016,
                    -0.09985961765050888,
                    -0.01908322423696518,
                    0.026029236614704132,
                    -0.06273079663515091,
                    0.03715018182992935,
                    0.01666615903377533,
                    0.0007354989647865295,
                    -0.09953001886606216,
                    0.0859614834189415,
                    0.0537949874997139,
                    -0.05783562734723091,
                    -0.09282204508781433,
                    0.004464849829673767,
                    -0.012509539723396301,
                    -0.04180120304226875,
                    -0.04659871384501457,
                    -0.054258860647678375,
                    0.03517868369817734,
                    0.06661275774240494,
                    0.07573778182268143,
                    0.0301736518740654,
                    0.04518876224756241,
                    -0.006057925522327423,
                    -0.020187988877296448,
                    -0.014914393424987793,
                    0.0027985423803329468,
                    -0.017447426915168762,
                    0.044138915836811066,
                    0.058305613696575165,
                    -0.08532670140266418,
                    0.062120430171489716,
                    -0.06946317851543427,
                    -0.08833582699298859,
                    -0.04683065414428711,
                    -0.05814081057906151,
                    -0.06743675470352173,
                    -0.09901120513677597,
                    0.04159977287054062,
                    -0.020303964614868164,
                    0.09296243637800217,
                    0.04851526767015457,
                    -0.03825495392084122,
                    -0.015390485525131226,
                    0.02157352864742279,
                    -0.08577227592468262,
                    -0.03501998633146286,
                    -0.09151585400104523,
                    0.04490188509225845,
                    0.07228919118642807,
                    -0.031955935060977936,
                    -0.016385391354560852,
                    0.018491163849830627,
                    -0.0013153478503227234,
                    -0.08510086685419083,
                    -0.03780938312411308,
                    0.033549003303050995,
                    0.07658009976148605,
                    -0.014157533645629883,
                    0.013968326151371002,
                    -0.051152076572179794,
                    -0.07457198202610016,
                    0.035123758018016815,
                    -0.06158330291509628,
                    -0.02063356339931488,
                    -0.03982360288500786,
                    -0.06168096140027046,
                    0.04755089432001114,
                    0.07275917381048203,
                    -0.013223670423030853,
                    0.030765719711780548,
                    -0.024283573031425476,
                    -0.0950193777680397,
                    -0.05966063588857651,
                    -0.08181096613407135,
                    -0.027414776384830475,
                    0.026334412395954132,
                    -0.02797020971775055,
                    0.04095279425382614,
                    -0.06439711153507233,
                    -0.010898157954216003,
                    -0.008890047669410706,
                    0.07291177660226822,
                    -0.06184576079249382,
                    -0.01189306378364563,
                    0.068266861140728,
                    -0.06353038549423218,
                    -0.09037446230649948,
                    0.04542069882154465,
                    0.0065523236989974976,
                    -0.08522293716669083,
                    0.02374645322561264,
                    0.07042146474123001,
                    0.08612627536058426,
                    0.0424543097615242,
                    0.051335178315639496,
                    0.026529736816883087,
                    0.08907438069581985,
                    0.05612660199403763,
                    0.033762626349925995,
                    -0.06417737901210785,
                    0.010580763220787048
                ]
            },
            {
                "b": 0.0,
                "w": [
                    0.08597368746995926,
                    -0.06663716584444046,
                    -0.047202982008457184,
                    -0.03733329474925995,
                    -0.030527666211128235,
                    0.017069004476070404,
                    0.038505204021930695,
                    0.07674489170312881,
                    -0.031241796910762787,
                    0.029453404247760773,
                    0.06633199006319046,
                    -0.08876308798789978,
                    -0.027329325675964355,
                    -0.08847621083259583,
                    0.09068574756383896,
                    -0.029386267066001892,
                    -0.035166479647159576,
                    -0.07854548841714859,
                    0.009817801415920258,
                    0.041856132447719574,
                    0,
                    -0.08649861067533493,
                    -0.04598833993077278,
                    -0.04511551186442375,
                    -0.056846827268600464,
                    0.03139438480138779,
                    0.030466623604297638,
                    0.07301553338766098,
                    0.032627351582050323,
                    -0.027573473751544952,
                    -0.044004637748003006,
                    -0.08029114454984665,
                    0.015280619263648987,
                    0.07849056273698807,
                    0.008926667273044586,
                    0.04796595126390457,
                    -0.03182165324687958,
                    0.010312199592590332,
                    0.031382180750370026,
                    -0.041508227586746216,
                    0.008041635155677795,
                    0.061168260872364044,
                    -0.08684042096138,
                    -0.02703024446964264,
                    0.096478171646595,
                    0.06627704948186874,
                    0.0885738804936409,
                    0.06866360455751419,
                    -0.03882870078086853,
                    -0.03586840629577637,
                    0.07736747711896896,
                    -0.019425027072429657,
                    0.014395579695701599,
                    -0.03390911966562271,
                    0.0010528936982154846,
                    -0.022537916898727417,
                    0.04998017102479935,
                    -0.009640797972679138,
                    -0.09411603212356567,
                    0.017911314964294434,
                    8.849799633026123e-05,
                    -0.08328806608915329,
                    0.02375255525112152,
                    0.09273048490285873,
                    -0.06700338423252106,
                    -0.08185369521379471,
                    0.0021210312843322754,
                    0,
                    -0.0268593430519104,
                    0.025785095989704132,
                    0.03449506312608719,
                    -0.021347694098949432,
                    -0.07534714788198471,
                    -0.016855373978614807,
                    -0.07759331166744232,
                    0.04782555252313614,
                    0.07972349971532822,
                    -0.05380108207464218,
                    0.0003753751516342163,
                    -0.04340037330985069,
                    -0.007095552980899811,
                    0.08536943048238754,
                    -0.04504837468266487,
                    -0.047935422509908676,
                    -0.09725333750247955,
                    0.04563433676958084,
                    0.06919462233781815,
                    0.03086947649717331,
                    -0.01808832585811615,
                    -0.07874691486358643,
                    -0.07626880705356598,
                    -0.03908505663275719,
                    0.09703970700502396,
                    -0.09895627200603485,
                    0.08582109957933426,
                    -0.06055177375674248,
                    0.059678949415683746,
                    0.04069032520055771,
                    0.01739250123500824,
                    -0.0063997358083724976,
                    0.04944915324449539,
                    -0.08176824450492859,
                    -0.06636250019073486,
                    -0.07014068961143494,
                    -0.009274572134017944,
                    0.029020048677921295,
                    0.04315011948347092,
                    -0.061412397772073746,
                    -0.03592944145202637,
                    0.07636035233736038,
                    -0.09904782474040985,
                    0.05987425893545151,
                    0.033732108771800995,
                    0.014108702540397644,
                    -0.09428083151578903,
                    0.016922511160373688,
                    -0.02765282243490219,
                    -0.0025116726756095886,
                    0.07235633581876755,
                    0.023343607783317566,
                    0.06420788913965225,
                    0.09834589809179306,
                    -0.08879970759153366,
                    0.07045198231935501,
                    0.06825465708971024,
                    -0.0589037761092186,
                    -0.05482650175690651,
                    -0.09906002879142761,
                    -0.0778740793466568,
                    -0.0843195915222168,
                    0,
                    -0.024875633418560028,
                    0.068449966609478,
                    -0.07636035978794098,
                    0.07086702436208725,
                    0.03598437458276749,
                    -0.015384383499622345,
                    -0.08630939573049545,
                    -0.019290752708911896,
                    -0.020700708031654358,
                    -0.0025849193334579468,
                    -0.036960966885089874,
                    -0.07860042154788971,
                    0.035166479647159576,
                    -0.03642994910478592,
                    -0.03943907096982002,
                    -0.05095675587654114,
                    -0.033011868596076965,
                    0.09764397889375687,
                    0.04825892299413681,
                    -0.019290752708911896,
                    0.09439680725336075,
                    -0.07165440917015076,
                    0.07714163511991501,
                    0.05174412578344345,
                    0.04615924507379532,
                    0.06476332992315292,
                    0.03379925340414047,
                    0.06105837970972061,
                    0.04952239245176315,
                    -0.04659871384501457,
                    0.09396954625844955,
                    0.03545335680246353,
                    0.062004454433918,
                    -0.09229102730751038,
                    0.05924559384584427,
                    0.04445021599531174,
                    -0.04784997180104256,
                    -0.009054839611053467,
                    0.03331095725297928,
                    -0.003341779112815857,
                    0.03523971885442734,
                    0.033903010189533234,
                    0.0938047394156456,
                    0.04907681792974472,
                    -0.029581591486930847,
                    -0.0313882902264595,
                    0.016190066933631897,
                    0.06057008355855942,
                    -0.07463911920785904,
                    -0.04065981134772301,
                    0.005813777446746826,
                    0.02066408097743988,
                    0.014774009585380554,
                    -0.08791467547416687,
                    0.09441512078046799,
                    0.08505203574895859,
                    -0.08104800432920456,
                    0.043833740055561066,
                    -0.04268624261021614,
                    -0.051072727888822556,
                    0.08874476701021194,
                    0.09281594306230545,
                    0.007608257234096527,
                    -0.010489210486412048,
                    0.042954809963703156,
                    0.05109714716672897,
                    -0.07647022604942322,
                    -0.09105807542800903,
                    -0.035264141857624054
                ]
            },
            {
                "b": 0.0,
                "w": [
                    0.000595876423176378,
                    0.06525228172540665,
                    -0.09119396656751633,
                    -0.09707022458314896,
                    -0.06606341898441315,
                    -0.06257210671901703,
                    -0.07241737097501755,
                    -0.01518295705318451,
                    -0.058720663189888,
                    -0.04631183668971062,
                    -0.027829591184854507,
                    -0.053619008511304855,
                    0.04441969841718674,
                    0.05927000194787979,
                    0.074895478785038,
                    -0.01352275162935257,
                    0.05942259356379509,
                    0.06818751245737076,
                    -0.09292580932378769,
                    0.050999484956264496,
                    -0.031001733615994453,
                    0.07107455283403397,
                    -0.019472291693091393,
                    -0.046574294567108154,
                    -0.014084294438362122,
                    -0.030043743550777435,
                    0.06819362193346024,
                    0.03794976323843002,
                    -0.011331520974636078,
                    0.09624011069536209,
                    -0.024863429367542267,
                    -0.008620843291282654,
                    -0.08933073282241821,
                    -0.03183385729789734,
                    0.09125340729951859,
                    -0.08982513099908829,
                    -0.03583177924156189,
                    -0.056016724556684494,
                    0.056773580610752106,
                    0.02881467342376709,
                    0.0802653580904007,
                    0.027017783373594284,
                    -0.02801363728940487,
                    0.015659049153327942,
                    0.04608524218201637,
                    -0.021030530333518982,
                    0.0823114737868309,
                    0.042771827429533005,
                    -0.07941831648349762,
                    -0.0022806779015809298,
                    -0.029990795999765396,
                    -0.06430555135011673,
                    0.010025253519415855,
                    -0.08425244688987732,
                    -0.016166359186172485,
                    0.009646488353610039,
                    -0.015486806631088257,
                    -0.02442980371415615,
                    -0.062260702252388,
                    0.0982116088271141,
                    0.01678822934627533,
                    -0.061657216399908066,
                    0.010061956942081451,
                    -0.01905880868434906,
                    -0.07545701414346695,
                    -0.018051698803901672,
                    0.07429731637239456,
                    -0.08400829881429672,
                    -0.002502820687368512,
                    -0.05523467808961868,
                    -0.007255919743329287,
                    0.08408153802156448,
                    0.09048976004123688,
                    -0.028617529198527336,
                    -0.09560533612966537,
                    0.05002289265394211,
                    0.0637989416718483,
                    -0.08345896750688553,
                    0.03807183355093002,
                    0.0481426976621151,
                    -0.047923214733600616,
                    -0.03646114841103554,
                    0.08230537921190262,
                    -0.002291940152645111,
                    -0.05705435201525688,
                    0.013265280053019524,
                    0.04307077080011368,
                    0.05470443516969681,
                    -0.05334330350160599,
                    -0.09970702230930328,
                    0.020675864070653915,
                    0.006204657256603241,
                    0.03802911192178726,
                    -0.007907253690063953,
                    0.037022002041339874,
                    -0.08644367754459381,
                    -0.048161476850509644,
                    0.02774437516927719,
                    -0.05548570305109024,
                    -0.08933073282241821,
                    -0.08691976964473724,
                    -0.04769095405936241,
                    -0.05213328078389168,
                    -0.03644215315580368,
                    0,
                    0.0032319054007530212,
                    -0.029954126104712486,
                    0.09757683426141739,
                    0.0032744312193244696,
                    0.004843530710786581,
                    -0.006396062206476927,
                    0.09835200756788254,
                    -0.08336131274700165,
                    -0.07260048389434814,
                    0.00865837000310421,
                    -0.007064853794872761,
                    -0.04996795579791069,
                    0.06679586321115494,
                    0.09872432798147202,
                    -0.08284249901771545,
                    0.036666370928287506,
                    -0.09879757463932037,
                    0.09576403349637985,
                    0.0756523385643959,
                    -0.03877377137541771,
                    -0.01902829110622406,
                    -0.06445203721523285,
                    0.0006075967103242874,
                    0.008426167070865631,
                    -0.09206518530845642,
                    -0.055271029472351074,
                    0.015744134783744812,
                    -0.003689691424369812,
                    -0.03957335278391838,
                    -0.009268470108509064,
                    -0.08854945749044418,
                    0.07564485818147659,
                    0.02028604969382286,
                    -0.07418744266033173,
                    -0.062346260994672775,
                    -0.023530228063464165,
                    -0.042016468942165375,
                    0.05657818540930748,
                    -0.0796075314283371,
                    0.08327586203813553,
                    -0.06766869127750397,
                    0.07001251727342606,
                    0.008539454080164433,
                    0.019814781844615936,
                    -0.039237648248672485,
                    -0.05249489098787308,
                    0.05684683471918106,
                    -0.07490768283605576,
                    0.016628533601760864,
                    0.0979979857802391,
                    -0.04847761243581772,
                    -0.09852290898561478,
                    0.009715300053358078,
                    0.041441090404987335,
                    0.0847180187702179,
                    0.016415908932685852,
                    -0.09382915496826172,
                    0.07402264326810837,
                    0.08398998528718948,
                    -0.06116214394569397,
                    -0.055832795798778534,
                    0.04618976265192032,
                    0.003196119796484709,
                    -0.008313003927469254,
                    0.0014801472425460815,
                    0.08483817428350449,
                    0.08087710291147232,
                    -0.09838862717151642,
                    0.07133091241121292,
                    -0.009101568721234798,
                    0.07253334671258926,
                    0.02721586264669895,
                    -0.09739982336759567,
                    -0.05643177777528763,
                    0.06293832510709763,
                    -0.052932534366846085,
                    -0.03915829584002495,
                    0.04241768270730972,
                    -0.035190895199775696,
                    -0.011257575824856758,
                    -0.033848077058792114,
                    -0.08135929703712463,
                    0.010042589157819748,
                    -0.01987672969698906,
                    -0.03569139540195465,
                    -0.05327005684375763,
                    0.039756469428539276,
                    0.004177745431661606,
                    -0.012656066566705704,
                    0.08770715445280075,
                    0.09945067018270493,
                    0.038566239178180695,
                    0.059819333255290985,
                    0.0953550860285759,
                    -0.054533522576093674
                ]
            },
            {
                "b": 0.0,
                "w": [
                    0.06120952591300011,
                    0.0070554763078689575,
                    -0.0835292637348175,
                    -0.030938206240534782,
                    -0.09685049206018448,
                    0.021486639976501465,
                    0.016733303666114807,
                    0,
                    0.0299600288271904,
                    0.043710801750421524,
                    0.06279056519269943,
                    -0.09423840045928955,
                    -0.06719259917736053,
                    -0.08604733645915985,
                    0.09267950803041458,
                    -0.0366191565990448,
                    -0.08933204412460327,
                    -0.04940031096339226,
                    0.005223599262535572,
                    -0.04132077470421791,
                    -0.07524959743022919,
                    -0.08801404386758804,
                    0.09973346441984177,
                    -0.029148228466510773,
                    -0.09365825355052948,
                    -0.002379524288699031,
                    0.09736338257789612,
                    -0.022605061531066895,
                    -0.00035895814653486013,
                    0.044939346611499786,
                    -0.024430066347122192,
                    0.07622513920068741,
                    -0.07962584495544434,
                    -0.021604938432574272,
                    0.046427398920059204,
                    -0.02467421442270279,
                    -0.08818934112787247,
                    0.06631088256835938,
                    0.010501421988010406,
                    -0.04364989325404167,
                    0.07924673706293106,
                    0.04245763272047043,
                    0.017315497621893883,
                    0.017971675843000412,
                    -0.0156928151845932,
                    0.04827466607093811,
                    0.06375622004270554,
                    0.006117211654782295,
                    0.08019348233938217,
                    0.052044130861759186,
                    -0.03852279111742973,
                    0.03615627810359001,
                    0.06917503476142883,
                    -0.0987609475851059,
                    0.004930765833705664,
                    0.014379825443029404,
                    -0.03622274845838547,
                    0.06432487070560455,
                    0,
                    -0.03563358262181282,
                    -0.0675344169139862,
                    0.018306490033864975,
                    -0.019553206861019135,
                    -0.035367898643016815,
                    -0.08837244659662247,
                    -0.06173054128885269,
                    0.05651243031024933,
                    0.0040078721940517426,
                    0.06452777981758118,
                    0.04492824524641037,
                    -0.09514162689447403,
                    -0.039262063801288605,
                    0.06909028440713882,
                    0.06683114171028137,
                    -0.046839386224746704,
                    0.011673331260681152,
                    -0.08487502485513687,
                    -0.026761680841445923,
                    -0.02261100523173809,
                    0.0778178796172142,
                    -0.007150526158511639,
                    0.033839598298072815,
                    -0.05256546288728714,
                    0.012433729134500027,
                    -0.046494949609041214,
                    -0.038202181458473206,
                    0.02318541705608368,
                    -0.06201056018471718,
                    -0.07642266899347305,
                    -0.003836169606074691,
                    -0.06790474057197571,
                    0.038158901035785675,
                    -0.046305734664201736,
                    0.08002190291881561,
                    0.059837646782398224,
                    0.011155505664646626,
                    0.08364386856555939,
                    -0.009377903304994106,
                    0.08490519225597382,
                    0.0907040610909462,
                    -0.09544053673744202,
                    -0.02231570892035961,
                    0.08877453207969666,
                    0.04075053334236145,
                    -0.00029754446586593986,
                    -0.03389690816402435,
                    -0.027500392869114876,
                    0.030295737087726593,
                    -0.05499845743179321,
                    0.07951123267412186,
                    -0.08846613019704819,
                    -0.005422729998826981,
                    0.050456248223781586,
                    -0.05945158749818802,
                    0.07934679090976715,
                    -0.011245188303291798,
                    -0.07592280209064484,
                    -0.09534287452697754,
                    -0.028522077947854996,
                    -0.059465158730745316,
                    0.039129938930273056,
                    0.08300910145044327,
                    -0.038425859063863754,
                    -0.09222067147493362,
                    -0.013773009181022644,
                    -0.08866491168737411,
                    0.01983398199081421,
                    0.047464191913604736,
                    -0.008639790117740631,
                    -0.07935591787099838,
                    0.025981709361076355,
                    0.0022524429950863123,
                    -0.018662072718143463,
                    0.06620515882968903,
                    0.007315285503864288,
                    -0.08914761990308762,
                    -0.022390035912394524,
                    0.07081371545791626,
                    -0.0662282183766365,
                    -0.05150348320603371,
                    0.0999540239572525,
                    -0.06103350594639778,
                    0.0004815940628759563,
                    0.0036831602919846773,
                    -0.03893555700778961,
                    0.09801426529884338,
                    0.02971065044403076,
                    -0.0024442956782877445,
                    -0.06651805341243744,
                    -0.07795537263154984,
                    -0.07684406638145447,
                    0.05215680971741676,
                    0.07008558511734009,
                    0.09600266814231873,
                    -0.004192209802567959,
                    0.0135496249422431,
                    -0.040794093161821365,
                    -0.025190172716975212,
                    -0.07719046622514725,
                    -0.06347014755010605,
                    0.09595552086830139,
                    -0.00519729545339942,
                    -0.06967562437057495,
                    0.036758892238140106,
                    0.050578318536281586,
                    0.09333427995443344,
                    -0.03803062438964844,
                    -0.08317779004573822,
                    0.015533418394625187,
                    -0.007309183478355408,
                    0.051667001098394394,
                    -0.02781301736831665,
                    0.01232197042554617,
                    -0.0951109379529953,
                    0.03467710316181183,
                    -0.016285354271531105,
                    -0.06098182126879692,
                    -0.08671461790800095,
                    0.02730122208595276,
                    0.0025974230375140905,
                    -0.05942760407924652,
                    -0.012540057301521301,
                    0.007721403613686562,
                    -0.06579084694385529,
                    0.08225814253091812,
                    0.0875423476099968,
                    -0.07237236201763153,
                    -0.07306787371635437,
                    0.008040551096200943,
                    -0.08577227592468262,
                    0.0873592421412468,
                    -0.027518540620803833,
                    -0.03514920175075531,
                    -0.0392134003341198,
                    0.004904329776763916,
                    0.023562364280223846,
                    0.07424848526716232,
                    0.02319657988846302,
                    -0.08960551768541336,
                    0.035637617111206055
                ]
            },
            {
                "b": 0.0,
                "w": [
                    0.032486457377672195,
                    0.024849625304341316,
                    0.0971231758594513,
                    0.03850548714399338,
                    -0.0794549435377121,
                    -0.08837305009365082,
                    0.06078983098268509,
                    0.04448073357343674,
                    -0.09520859271287918,
                    0.07469547539949417,
                    0.057227279990911484,
                    0.09880304336547852,
                    -0.08963137865066528,
                    0.05561647191643715,
                    0.010991087183356285,
                    0.07934532314538956,
                    0.04778238385915756,
                    -0.008738412521779537,
                    0.006091612856835127,
                    -0.04920940101146698,
                    0.07440081238746643,
                    -0.045334164053201675,
                    0.08837813884019852,
                    0.0808158665895462,
                    0.07174558937549591,
                    0.047626666724681854,
                    0.01280017290264368,
                    -0.07673849910497665,
                    0.02054707147181034,
                    0.0011502853594720364,
                    0.06649678200483322,
                    0.07557221502065659,
                    0.05372784286737442,
                    -0.058642443269491196,
                    -0.002559869782999158,
                    0.015897095203399658,
                    0.06946165859699249,
                    0.0748785138130188,
                    -0.01813097484409809,
                    -0.07287748157978058,
                    0.08523822575807571,
                    -0.048081886023283005,
                    0.060429688543081284,
                    -0.08753624558448792,
                    0.014274179935455322,
                    0.0624886080622673,
                    -0.025034330785274506,
                    0.011433481238782406,
                    0.045058444142341614,
                    0.022027168422937393,
                    0.03651236370205879,
                    -0.0808614045381546,
                    -0.09389793127775192,
                    -0.09758085757493973,
                    0,
                    0.018160583451390266,
                    -0.003401870373636484,
                    -0.03465824946761131,
                    0.07342435419559479,
                    0.027696019038558006,
                    0.06396985799074173,
                    -0.04623675346374512,
                    -0.09956663846969604,
                    0.0760795995593071,
                    0.010700168088078499,
                    -0.0020867923740297556,
                    0.03589867055416107,
                    -0.09600907564163208,
                    -0.08997484296560287,
                    0.09151320904493332,
                    -0.042880650609731674,
                    0.0037319802213460207,
                    0.01347385998815298,
                    -0.004356518853455782,
                    -0.0652284175157547,
                    0.000988176092505455,
                    0.029878903180360794,
                    -0.07459639012813568,
                    -0.0020235255360603333,
                    0.08559385687112808,
                    0.058675285428762436,
                    0.07606372237205505,
                    -0.019488714635372162,
                    -0.002831735648214817,
                    0.05740226060152054,
                    -0.05496065691113472,
                    -0.019777793437242508,
                    -0.027433104813098907,
                    0.025485141202807426,
                    -0.09443342685699463,
                    0.0624130442738533,
                    -0.040007658302783966,
                    -0.014795191586017609,
                    -0.010972882620990276,
                    -0.061357464641332626,
                    -0.09204686433076859,
                    -0.05883685499429703,
                    -0.06875365972518921,
                    0.05234120413661003,
                    0.0337052159011364,
                    0.09964069724082947,
                    0.039775729179382324,
                    0.0021247221156954765,
                    0.07810045778751373,
                    -0.07131098955869675,
                    -0.0619739405810833,
                    -0.06613057106733322,
                    0.05311157926917076,
                    -0.058975428342819214,
                    -0.05721253901720047,
                    0.034504521638154984,
                    0.08820946514606476,
                    -0.020493177697062492,
                    -0.0692853331565857,
                    -0.044152162969112396,
                    0.08159124106168747,
                    0.08864600956439972,
                    0.05128633975982666,
                    -0.09794042259454727,
                    -0.03687327727675438,
                    -0.049088288098573685,
                    -0.05905190482735634,
                    0.011593945324420929,
                    0.0744655579328537,
                    -0.02878810465335846,
                    -0.004028464201837778,
                    -0.03622801974415779,
                    0.07319416105747223,
                    -0.010855451226234436,
                    -0.04064638540148735,
                    0.042701613157987595,
                    0.06720246374607086,
                    -0.09829706698656082,
                    -0.020930267870426178,
                    0,
                    -0.015054645016789436,
                    -0.023473890498280525,
                    -0.007579094264656305,
                    0.06772362440824509,
                    0.08882948011159897,
                    -0.0623435415327549,
                    -0.005788388662040234,
                    0.09546443819999695,
                    0.036880459636449814,
                    0.004682066384702921,
                    0.04460597410798073,
                    0.03662281483411789,
                    5.057338057667948e-05,
                    -0.03349807858467102,
                    -0.028758354485034943,
                    -0.07771969586610794,
                    0.04031461104750633,
                    0.07163981348276138,
                    0.02544674091041088,
                    -0.09085290879011154,
                    0.056738775223493576,
                    0.01521949004381895,
                    0.04488341137766838,
                    0.014749637804925442,
                    -0.09491834789514542,
                    0.0048733968287706375,
                    -0.01851661317050457,
                    -0.04104641452431679,
                    -0.002136316616088152,
                    -0.013941162265837193,
                    -0.04996950924396515,
                    0.04398183152079582,
                    -0.009610200300812721,
                    0.008762402459979057,
                    0.05331278592348099,
                    -0.09742078930139542,
                    0.0593126080930233,
                    0.016387438401579857,
                    -0.058983124792575836,
                    0.047855161130428314,
                    -0.019461506977677345,
                    0.03761021047830582,
                    -0.04236052930355072,
                    0.05314053222537041,
                    -0.08842050284147263,
                    0.06388916075229645,
                    0.0362224206328392,
                    0.0969405472278595,
                    0.08580755442380905,
                    -0.007563329767435789,
                    -0.0057470365427434444,
                    0.09951352328062057,
                    -0.07648374140262604,
                    -0.08332015573978424,
                    -0.01255232933908701,
                    -0.013266552239656448,
                    -0.0319681391119957,
                    -0.0552063062787056,
                    -0.021812688559293747,
                    -0.09012421220541,
                    -0.0496157705783844,
                    0.02870265394449234,
                    -0.025396257638931274,
                    -0.046753715723752975,
                    -0.008318345062434673
                ]
            },
            {
                "b": 0.0,
                "w": [
                    -0.016491113230586052,
                    0.09664862602949142,
                    -0.03899627551436424,
                    0.047060851007699966,
                    -0.020450161769986153,
                    0.02519223466515541,
                    0.014786221086978912,
                    -0.0007357255672104657,
                    0.08775842189788818,
                    0.09093665331602097,
                    -0.00789615511894226,
                    -0.09344953298568726,
                    -0.040159907191991806,
                    -0.04126424714922905,
                    -0.06159484013915062,
                    0.012515606358647346,
                    0.02460571378469467,
                    -0.036175090819597244,
                    0.08323226124048233,
                    0.023126201704144478,
                    0.08132842928171158,
                    0.05654388666152954,
                    0.031167829409241676,
                    0.05786861479282379,
                    0.07172746956348419,
                    0.011263259686529636,
                    -0.04004448652267456,
                    -0.019342252984642982,
                    -0.08809565007686615,
                    0.05600434169173241,
                    -0.04346141219139099,
                    -0.0826239213347435,
                    -0.03501998633146286,
                    -0.020608054473996162,
                    -0.07821596413850784,
                    0.06581316143274307,
                    0.03611908107995987,
                    0.07023730129003525,
                    -0.023984499275684357,
                    0.004499525763094425,
                    0.07112082839012146,
                    -0.05304913595318794,
                    -0.00392562011256814,
                    0.0064382958225905895,
                    0.039891861379146576,
                    0.03258594870567322,
                    0.015253880992531776,
                    -0.035298917442560196,
                    -0.014475320465862751,
                    -0.06811889261007309,
                    -0.08278954774141312,
                    0.03478558361530304,
                    -0.07894303649663925,
                    0.06626081466674805,
                    -0.04436483234167099,
                    0.0015752841718494892,
                    -0.04536190256476402,
                    0.023615887388586998,
                    -0.06977523118257523,
                    0.0758344903588295,
                    -0.07576830685138702,
                    -0.02140207029879093,
                    -0.04935148358345032,
                    -0.07264931499958038,
                    -0.07622339576482773,
                    0.03996379300951958,
                    0.01978326588869095,
                    0.06051439046859741,
                    0.001106453244574368,
                    0.08095861226320267,
                    -0.03274335339665413,
                    -0.06126590818166733,
                    0.009860530495643616,
                    -0.09072688221931458,
                    -0.035652875900268555,
                    -0.03597790747880936,
                    0.09567243605852127,
                    -0.06711847335100174,
                    -0.04763710871338844,
                    -0.08228547871112823,
                    -0.0011030386667698622,
                    -0.022639788687229156,
                    0.01462702639400959,
                    -0.030916273593902588,
                    0.05417341738939285,
                    0.011939018964767456,
                    0.024158986285328865,
                    0.05739983916282654,
                    0.06872858107089996,
                    0.03960997611284256,
                    -0.0021777187939733267,
                    -0.04566970095038414,
                    -0.039574358612298965,
                    -0.09189140051603317,
                    0.08853921294212341,
                    0.012645944021642208,
                    -0.06330556422472,
                    0.09793504327535629,
                    0.046433452516794205,
                    -0.09261554479598999,
                    0.09594512730836868,
                    0.043299559503793716,
                    0.08058992028236389,
                    -0.024012606590986252,
                    0.03224298357963562,
                    0.042832739651203156,
                    -0.04784221202135086,
                    0.06334665417671204,
                    -0.07495155930519104,
                    -0.08414754271507263,
                    0.030807912349700928,
                    0.07835422456264496,
                    0.09464094787836075,
                    0.0604972317814827,
                    -0.05517462268471718,
                    -0.032084107398986816,
                    -0.09492283314466476,
                    0.07024058699607849,
                    -0.04318714141845703,
                    -0.08514776080846786,
                    -0.004444540478289127,
                    -0.03526802733540535,
                    0.09623401612043381,
                    0.06580297648906708,
                    -0.07848445326089859,
                    -0.008548137731850147,
                    -0.0205769594758749,
                    -0.0044320994056761265,
                    -0.013193152844905853,
                    0.0540858693420887,
                    -0.050857625901699066,
                    0.013912792317569256,
                    -0.05187230929732323,
                    -0.07551063597202301,
                    0.06422620266675949,
                    -0.07867977023124695,
                    -0.027075255289673805,
                    0.09374027699232101,
                    -0.028899535536766052,
                    -0.08030582219362259,
                    -0.06787106394767761,
                    0.019028859212994576,
                    -0.012008456513285637,
                    0.08447477966547012,
                    0.008931185118854046,
                    0.022719644010066986,
                    0.033456601202487946,
                    -0.09568217396736145,
                    -0.09549256414175034,
                    -0.001014969078823924,
                    -0.06991520524024963,
                    0.09467385709285736,
                    0.022849788889288902,
                    -0.014240790158510208,
                    -0.0848802998661995,
                    -0.008807840757071972,
                    -0.08522293716669083,
                    -0.04323437809944153,
                    0.0887875035405159,
                    -0.07028220593929291,
                    -0.03658682852983475,
                    0.0905243456363678,
                    0.03163284808397293,
                    -0.08118026703596115,
                    -0.008455634117126465,
                    0.07306646555662155,
                    -0.0772312805056572,
                    0.011141160503029823,
                    -0.027225002646446228,
                    0.08940397948026657,
                    -0.011044817045331001,
                    0.07960955798625946,
                    -0.07252738624811172,
                    0.061325930058956146,
                    0.01750042289495468,
                    0.005294865928590298,
                    -0.01574184186756611,
                    -0.01328378077596426,
                    -0.037603918462991714,
                    -0.01731274463236332,
                    0.089460588991642,
                    -0.06270990520715714,
                    -0.023393193259835243,
                    -0.05112083628773689,
                    -0.05543919652700424,
                    -0.02927640825510025,
                    -0.09949997812509537,
                    0.042546346783638,
                    0.05373840779066086,
                    -0.08652912825345993,
                    -0.061638232320547104,
                    0.09981689602136612,
                    0.062055423855781555,
                    0.07059191912412643,
                    -0.0459517277777195,
                    0.09205882251262665,
                    0.06627095490694046,
                    0.018690451979637146,
                    -0.08299773186445236,
                    -0.08695400506258011
                ]
            },
            {
                "b": 0.0,
                "w": [
                    0.0789671540260315,
                    -0.06153309717774391,
                    -0.07014543563127518,
                    0.020847514271736145,
                    -0.07245038449764252,
                    0.042701996862888336,
                    -0.03084506094455719,
                    -0.05875728651881218,
                    -0.030800836160779,
                    -0.04352810978889465,
                    -0.030187904834747314,
                    -0.061383411288261414,
                    -0.09696236997842789,
                    0.00553910480812192,
                    -0.01470675878226757,
                    0.06070653721690178,
                    0.06101465970277786,
                    0.06885888427495956,
                    0.0545232854783535,
                    0.06341101229190826,
                    0.058219846338033676,
                    -0.047720227390527725,
                    -0.09387005120515823,
                    0.022018341347575188,
                    -0.015419652685523033,
                    -0.06113302335143089,
                    -0.06745639443397522,
                    -0.06513823568820953,
                    0.018625155091285706,
                    0.07242957502603531,
                    -0.036057621240615845,
                    -0.07408533990383148,
                    0.04478071257472038,
                    0.030798407271504402,
                    0.07410826534032822,
                    -0.04753867909312248,
                    -0.044631149619817734,
                    -0.05556737259030342,
                    -0.05091403052210808,
                    0.024051599204540253,
                    0.018749138340353966,
                    0.01718568056821823,
                    0.050004687160253525,
                    0.038930200040340424,
                    -0.005197936203330755,
                    -0.09469866752624512,
                    -0.09867031872272491,
                    0.04465831443667412,
                    -0.021402979269623756,
                    -0.08929800242185593,
                    -0.06438490003347397,
                    0.028375355526804924,
                    0.05412314087152481,
                    -0.05488754063844681,
                    0.02631288208067417,
                    0.04361625388264656,
                    -0.0610082671046257,
                    -0.07887310534715652,
                    -0.060327719897031784,
                    -0.02030511014163494,
                    0,
                    -0.07352741807699203,
                    0.03690602630376816,
                    -0.020108647644519806,
                    -0.07013453543186188,
                    0.03758968412876129,
                    0.058236364275217056,
                    0.014740998856723309,
                    0.040005430579185486,
                    -0.07086551934480667,
                    -0.08036379516124725,
                    0.016568496823310852,
                    0.0941099300980568,
                    -0.0646752417087555,
                    -0.04629167541861534,
                    0.08170884847640991,
                    0.020464925095438957,
                    -0.08051036298274994,
                    -0.07388824969530106,
                    -0.05351829156279564,
                    0.010142844170331955,
                    0.007999543100595474,
                    0.058525051921606064,
                    0.043348006904125214,
                    -0.02614830993115902,
                    -0.05489429086446762,
                    -0.010597998276352882,
                    -0.05685390159487724,
                    0.03960847109556198,
                    -0.07546922564506531,
                    -0.09584131091833115,
                    0.09026993811130524,
                    -0.027064383029937744,
                    0.054302722215652466,
                    -0.034572895616292953,
                    0.036356840282678604,
                    -0.09989620745182037,
                    -0.08882799744606018,
                    0.07515060156583786,
                    0.07920807600021362,
                    0.016927076503634453,
                    -0.05942190811038017,
                    0.09941574931144714,
                    -0.0869385302066803,
                    0.06267429143190384,
                    -0.0414227731525898,
                    -0.012246815487742424,
                    -0.0036555540282279253,
                    0.04192553833127022,
                    -0.08783287554979324,
                    -0.08269224315881729,
                    0.043233711272478104,
                    -0.025391198694705963,
                    -0.04618993401527405,
                    0.09416194260120392,
                    -0.05449690297245979,
                    -0.04412517324090004,
                    -0.013259184546768665,
                    -0.05789986997842789,
                    -0.06953621655702591,
                    -0.09296354651451111,
                    -0.06263357400894165,
                    -0.08895840495824814,
                    0.06157339736819267,
                    0.09874651581048965,
                    -0.08932138979434967,
                    0.03528137132525444,
                    0.08790857344865799,
                    0.027616210281848907,
                    0.0852418914437294,
                    0.07381206005811691,
                    -0.051350850611925125,
                    -0.07227372378110886,
                    -0.09621452540159225,
                    -0.036704614758491516,
                    -0.06104617565870285,
                    0.09813272207975388,
                    0.01587641052901745,
                    0.015298918820917606,
                    0.04338217154145241,
                    -0.0725710541009903,
                    -0.07127906382083893,
                    -0.011161450296640396,
                    0.043086227029561996,
                    -0.002771263476461172,
                    0.022342653945088387,
                    0.06970524787902832,
                    -0.09678971767425537,
                    -0.05502841994166374,
                    0.08564846962690353,
                    0.08743178844451904,
                    0.04661204293370247,
                    0.06804469972848892,
                    0.029222683981060982,
                    0.0015505702467635274,
                    0.019834542647004128,
                    -0.04992523416876793,
                    -0.06841262429952621,
                    -0.011460819281637669,
                    -0.041531309485435486,
                    0.09075987339019775,
                    0.07466218620538712,
                    -0.04038845747709274,
                    -0.04289310798048973,
                    0.020372219383716583,
                    -0.07489573210477829,
                    0.042348820716142654,
                    -0.049084246158599854,
                    0.08041980862617493,
                    -0.08251289278268814,
                    0.05569111183285713,
                    0.014710242860019207,
                    -0.048500653356313705,
